booster[0]:
0:[hr<6] yes=1,no=2,missing=1
	1:[hr<3] yes=3,no=4,missing=3
		3:[workingday<1] yes=7,no=8,missing=7
			7:leaf=0.393978238
			8:[hr<2] yes=15,no=16,missing=15
				15:[atemp<0.280300021] yes=25,no=26,missing=25
					25:leaf=0.359132588
					26:leaf=0.386146337
				16:[atemp<0.356050014] yes=27,no=28,missing=27
					27:leaf=0.318915218
					28:leaf=0.362344772
		4:[hr<5] yes=9,no=10,missing=9
			9:[workingday<1] yes=17,no=18,missing=17
				17:[hr<4] yes=29,no=30,missing=29
					29:leaf=0.383817464
					30:leaf=0.350514859
				18:[temp<0.329999983] yes=31,no=32,missing=31
					31:leaf=0.268798441
					32:leaf=0.33419764
			10:[workingday<1] yes=19,no=20,missing=19
				19:[temp<0.370000005] yes=33,no=34,missing=33
					33:leaf=0.323107153
					34:leaf=0.362884849
				20:[atemp<0.219700009] yes=35,no=36,missing=35
					35:leaf=0.356100589
					36:leaf=0.383457035
	2:[temp<0.389999986] yes=5,no=6,missing=5
		5:[hr<22] yes=11,no=12,missing=11
			11:[hr<7] yes=21,no=22,missing=21
				21:[workingday<1] yes=37,no=38,missing=37
					37:leaf=0.363080651
					38:leaf=0.393646628
				22:leaf=0.397246331
			12:leaf=0.392757058
		6:[hr<22] yes=13,no=14,missing=13
			13:[hr<7] yes=23,no=24,missing=23
				23:[workingday<1] yes=39,no=40,missing=39
					39:leaf=0.383195788
					40:leaf=0.396504372
				24:leaf=0.398652196
			14:leaf=0.396928757
booster[1]:
0:[hr<6] yes=1,no=2,missing=1
	1:[hr<3] yes=3,no=4,missing=3
		3:[workingday<1] yes=7,no=8,missing=7
			7:[atemp<0.371199995] yes=15,no=16,missing=15
				15:leaf=0.384553283
				16:leaf=0.393054098
			8:[hr<2] yes=17,no=18,missing=17
				17:[temp<0.389999986] yes=29,no=30,missing=29
					29:leaf=0.356611699
					30:leaf=0.381691635
				18:[atemp<0.356050014] yes=31,no=32,missing=31
					31:leaf=0.292717606
					32:leaf=0.347036868
		4:[hr<5] yes=9,no=10,missing=9
			9:[workingday<1] yes=19,no=20,missing=19
				19:[hr<4] yes=33,no=34,missing=33
					33:leaf=0.376500428
					34:leaf=0.331604004
				20:[temp<0.329999983] yes=35,no=36,missing=35
					35:leaf=0.236743912
					36:leaf=0.311025351
			10:[workingday<1] yes=21,no=22,missing=21
				21:[season<2] yes=37,no=38,missing=37
					37:leaf=0.2808474
					38:leaf=0.343444437
				22:[temp<0.25] yes=39,no=40,missing=39
					39:leaf=0.34959352
					40:leaf=0.376823634
	2:[temp<0.389999986] yes=5,no=6,missing=5
		5:[hr<21] yes=11,no=12,missing=11
			11:[hr<7] yes=23,no=24,missing=23
				23:[workingday<1] yes=41,no=42,missing=41
					41:leaf=0.348111719
					42:leaf=0.39063248
				24:[yr<1] yes=43,no=44,missing=43
					43:leaf=0.395235658
					44:leaf=0.397034436
			12:leaf=0.390793771
		6:[hr<7] yes=13,no=14,missing=13
			13:[workingday<1] yes=25,no=26,missing=25
				25:[mnth<2] yes=45,no=46,missing=45
					45:leaf=0.113937594
					46:leaf=0.375866473
				26:leaf=0.394819766
			14:[hr<22] yes=27,no=28,missing=27
				27:[yr<1] yes=47,no=48,missing=47
					47:leaf=0.397574842
					48:leaf=0.398409188
				28:leaf=0.395442337
booster[2]:
0:[hr<6] yes=1,no=2,missing=1
	1:[hr<3] yes=3,no=4,missing=3
		3:[workingday<1] yes=7,no=8,missing=7
			7:[atemp<0.371199995] yes=15,no=16,missing=15
				15:leaf=0.377533644
				16:leaf=0.389758945
			8:[hr<1] yes=17,no=18,missing=17
				17:[temp<0.389999986] yes=31,no=32,missing=31
					31:leaf=0.354654759
					32:leaf=0.380343437
				18:[temp<0.350000024] yes=33,no=34,missing=33
					33:leaf=0.286632389
					34:leaf=0.346715689
		4:[hr<5] yes=9,no=10,missing=9
			9:[workingday<1] yes=19,no=20,missing=19
				19:[hr<4] yes=35,no=36,missing=35
					35:leaf=0.366247624
					36:leaf=0.307900399
				20:[season<2] yes=37,no=38,missing=37
					37:leaf=0.199172989
					38:leaf=0.283045083
			10:[workingday<1] yes=21,no=22,missing=21
				21:[temp<0.409999996] yes=39,no=40,missing=39
					39:leaf=0.270687073
					40:leaf=0.33049196
				22:[temp<0.25] yes=41,no=42,missing=41
					41:leaf=0.330506027
					42:leaf=0.3666794
	2:[temp<0.409999996] yes=5,no=6,missing=5
		5:[hr<21] yes=11,no=12,missing=11
			11:[hr<7] yes=23,no=24,missing=23
				23:[workingday<1] yes=43,no=44,missing=43
					43:leaf=0.329743832
					44:leaf=0.386666954
				24:[yr<1] yes=45,no=46,missing=45
					45:leaf=0.393163204
					46:leaf=0.395736188
			12:[atemp<0.265150011] yes=25,no=26,missing=25
				25:leaf=0.380654573
				26:leaf=0.389039606
		6:[hr<7] yes=13,no=14,missing=13
			13:[workingday<1] yes=27,no=28,missing=27
				27:[mnth<2] yes=47,no=48,missing=47
					47:leaf=0.10165491
					48:leaf=0.366663605
				28:leaf=0.392447442
			14:[hr<22] yes=29,no=30,missing=29
				29:[yr<1] yes=49,no=50,missing=49
					49:leaf=0.396461278
					50:leaf=0.397667199
				30:leaf=0.393385023
booster[3]:
0:[hr<6] yes=1,no=2,missing=1
	1:[hr<3] yes=3,no=4,missing=3
		3:[workingday<1] yes=7,no=8,missing=7
			7:[atemp<0.371199995] yes=15,no=16,missing=15
				15:[holiday<1] yes=31,no=32,missing=31
					31:leaf=0.369344324
					32:leaf=0.337527543
				16:leaf=0.384977221
			8:[hr<1] yes=17,no=18,missing=17
				17:[temp<0.389999986] yes=33,no=34,missing=33
					33:leaf=0.336948633
					34:leaf=0.371587574
				18:[temp<0.350000024] yes=35,no=36,missing=35
					35:leaf=0.255863547
					36:leaf=0.326678753
		4:[hr<5] yes=9,no=10,missing=9
			9:[workingday<1] yes=19,no=20,missing=19
				19:[hr<4] yes=37,no=38,missing=37
					37:leaf=0.352252424
					38:leaf=0.27978
				20:[temp<0.430000007] yes=39,no=40,missing=39
					39:leaf=0.187808812
					40:leaf=0.260051459
			10:[workingday<1] yes=21,no=22,missing=21
				21:[temp<0.409999996] yes=41,no=42,missing=41
					41:leaf=0.238836557
					42:leaf=0.30660516
				22:[temp<0.25] yes=43,no=44,missing=43
					43:leaf=0.306651413
					44:leaf=0.352814704
	2:[temp<0.409999996] yes=5,no=6,missing=5
		5:[hr<21] yes=11,no=12,missing=11
			11:[hr<7] yes=23,no=24,missing=23
				23:[workingday<1] yes=45,no=46,missing=45
					45:leaf=0.305691183
					46:leaf=0.380544692
				24:[yr<1] yes=47,no=48,missing=47
					47:leaf=0.389912665
					48:leaf=0.393683761
			12:[atemp<0.265150011] yes=25,no=26,missing=25
				25:[yr<1] yes=49,no=50,missing=49
					49:leaf=0.366409063
					50:leaf=0.379794687
				26:[hr<23] yes=51,no=52,missing=51
					51:leaf=0.385858476
					52:leaf=0.377134711
		6:[hr<7] yes=13,no=14,missing=13
			13:[workingday<1] yes=27,no=28,missing=27
				27:[weekday<1] yes=53,no=54,missing=53
					53:leaf=0.332367688
					54:leaf=0.361547202
				28:leaf=0.388876438
			14:[hr<22] yes=29,no=30,missing=29
				29:[yr<1] yes=55,no=56,missing=55
					55:leaf=0.394751042
					56:leaf=0.396533221
				30:[hr<23] yes=57,no=58,missing=57
					57:leaf=0.391889066
					58:leaf=0.387692511
booster[4]:
0:[hr<6] yes=1,no=2,missing=1
	1:[hr<3] yes=3,no=4,missing=3
		3:[workingday<1] yes=7,no=8,missing=7
			7:[atemp<0.371199995] yes=15,no=16,missing=15
				15:[holiday<1] yes=31,no=32,missing=31
					31:leaf=0.356423706
					32:leaf=0.315540105
				16:[hr<1] yes=33,no=34,missing=33
					33:leaf=0.382722884
					34:leaf=0.374415129
			8:[hr<1] yes=17,no=18,missing=17
				17:[temp<0.389999986] yes=35,no=36,missing=35
					35:leaf=0.314469069
					36:leaf=0.359469503
				18:[temp<0.370000005] yes=37,no=38,missing=37
					37:leaf=0.227582619
					38:leaf=0.302975386
		4:[hr<5] yes=9,no=10,missing=9
			9:[workingday<1] yes=19,no=20,missing=19
				19:[hr<4] yes=39,no=40,missing=39
					39:leaf=0.333806366
					40:leaf=0.248418719
				20:[mnth<4] yes=41,no=42,missing=41
					41:leaf=0.137316331
					42:leaf=0.221521854
			10:[workingday<1] yes=21,no=22,missing=21
				21:[temp<0.449999988] yes=43,no=44,missing=43
					43:leaf=0.211332157
					44:leaf=0.282688081
				22:[atemp<0.325749993] yes=45,no=46,missing=45
					45:leaf=0.293318182
					46:leaf=0.337021708
	2:[temp<0.409999996] yes=5,no=6,missing=5
		5:[hr<21] yes=11,no=12,missing=11
			11:[hr<7] yes=23,no=24,missing=23
				23:[workingday<1] yes=47,no=48,missing=47
					47:leaf=0.277302116
					48:leaf=0.371874154
				24:[yr<1] yes=49,no=50,missing=49
					49:leaf=0.385192662
					50:leaf=0.390673488
			12:[atemp<0.265150011] yes=25,no=26,missing=25
				25:[yr<1] yes=51,no=52,missing=51
					51:leaf=0.352463782
					52:leaf=0.370855331
				26:[hr<23] yes=53,no=54,missing=53
					53:leaf=0.379381388
					54:leaf=0.367124766
		6:[hr<22] yes=13,no=14,missing=13
			13:[hr<7] yes=27,no=28,missing=27
				27:[workingday<1] yes=55,no=56,missing=55
					55:leaf=0.334338933
					56:leaf=0.383706778
				28:[yr<1] yes=57,no=58,missing=57
					57:leaf=0.392235428
					58:leaf=0.394857168
			14:[hr<23] yes=29,no=30,missing=29
				29:leaf=0.388060302
				30:[weekday<4] yes=59,no=60,missing=59
					59:leaf=0.377981156
					60:leaf=0.38575083
booster[5]:
0:[hr<6] yes=1,no=2,missing=1
	1:[hr<3] yes=3,no=4,missing=3
		3:[workingday<1] yes=7,no=8,missing=7
			7:[atemp<0.371199995] yes=15,no=16,missing=15
				15:[temp<0.150000006] yes=31,no=32,missing=31
					31:leaf=0.283079684
					32:leaf=0.339072794
				16:[hr<1] yes=33,no=34,missing=33
					33:leaf=0.37494418
					34:leaf=0.363347381
			8:[hr<2] yes=17,no=18,missing=17
				17:[temp<0.389999986] yes=35,no=36,missing=35
					35:leaf=0.264090449
					36:leaf=0.328183591
				18:[temp<0.229999989] yes=37,no=38,missing=37
					37:leaf=0.0712008402
					38:leaf=0.223424479
		4:[hr<5] yes=9,no=10,missing=9
			9:[workingday<1] yes=19,no=20,missing=19
				19:[hr<4] yes=39,no=40,missing=39
					39:leaf=0.310560077
					40:leaf=0.215616822
				20:[temp<0.430000007] yes=41,no=42,missing=41
					41:leaf=0.125829563
					42:leaf=0.196481481
			10:[workingday<1] yes=21,no=22,missing=21
				21:[season<2] yes=43,no=44,missing=43
					43:leaf=0.142743453
					44:leaf=0.238228798
				22:[atemp<0.219700009] yes=45,no=46,missing=45
					45:leaf=0.218986496
					46:leaf=0.309422851
	2:[temp<0.409999996] yes=5,no=6,missing=5
		5:[hr<21] yes=11,no=12,missing=11
			11:[hr<7] yes=23,no=24,missing=23
				23:[workingday<1] yes=47,no=48,missing=47
					47:leaf=0.245808125
					48:leaf=0.359866023
				24:[yr<1] yes=49,no=50,missing=49
					49:leaf=0.378423721
					50:leaf=0.386293739
			12:[atemp<0.265150011] yes=25,no=26,missing=25
				25:[yr<1] yes=51,no=52,missing=51
					51:leaf=0.334073126
					52:leaf=0.358512431
				26:[hr<23] yes=53,no=54,missing=53
					53:leaf=0.370234221
					54:leaf=0.353430241
		6:[hr<22] yes=13,no=14,missing=13
			13:[hr<7] yes=27,no=28,missing=27
				27:[workingday<1] yes=55,no=56,missing=55
					55:leaf=0.311265707
					56:leaf=0.376323551
				28:[yr<1] yes=57,no=58,missing=57
					57:leaf=0.388559908
					58:leaf=0.392391175
			14:[hr<23] yes=29,no=30,missing=29
				29:[weathersit<3] yes=59,no=60,missing=59
					59:leaf=0.383163124
					60:leaf=0.361956775
				30:[weekday<4] yes=61,no=62,missing=61
					61:leaf=0.368284553
					62:leaf=0.379233658
booster[6]:
0:[hr<6] yes=1,no=2,missing=1
	1:[hr<2] yes=3,no=4,missing=3
		3:[workingday<1] yes=7,no=8,missing=7
			7:[temp<0.370000005] yes=15,no=16,missing=15
				15:[temp<0.150000006] yes=31,no=32,missing=31
					31:leaf=0.256281108
					32:leaf=0.323540777
				16:[temp<0.49000001] yes=33,no=34,missing=33
					33:leaf=0.346976489
					34:leaf=0.363565058
			8:[hr<1] yes=17,no=18,missing=17
				17:[temp<0.389999986] yes=35,no=36,missing=35
					35:leaf=0.25942257
					36:leaf=0.323283762
				18:[atemp<0.280300021] yes=37,no=38,missing=37
					37:leaf=0.134045079
					38:leaf=0.260084838
		4:[workingday<1] yes=9,no=10,missing=9
			9:[hr<4] yes=19,no=20,missing=19
				19:[atemp<0.340900004] yes=39,no=40,missing=39
					39:leaf=0.2651591
					40:leaf=0.327517927
				20:[atemp<0.356050014] yes=41,no=42,missing=41
					41:leaf=0.120829597
					42:leaf=0.214071423
			10:[hr<5] yes=21,no=22,missing=21
				21:[temp<0.430000007] yes=43,no=44,missing=43
					43:leaf=0.114082448
					44:leaf=0.182197496
				22:[yr<1] yes=45,no=46,missing=45
					45:leaf=0.252047062
					46:leaf=0.301268846
	2:[temp<0.389999986] yes=5,no=6,missing=5
		5:[hr<21] yes=11,no=12,missing=11
			11:[hr<7] yes=23,no=24,missing=23
				23:[workingday<1] yes=47,no=48,missing=47
					47:leaf=0.210550144
					48:leaf=0.342088431
				24:[yr<1] yes=49,no=50,missing=49
					49:leaf=0.367936969
					50:leaf=0.379361331
			12:[atemp<0.265150011] yes=25,no=26,missing=25
				25:[yr<1] yes=51,no=52,missing=51
					51:leaf=0.310881317
					52:leaf=0.34199217
				26:[hr<23] yes=53,no=54,missing=53
					53:leaf=0.356561273
					54:leaf=0.333423167
		6:[hr<22] yes=13,no=14,missing=13
			13:[hr<7] yes=27,no=28,missing=27
				27:[workingday<1] yes=55,no=56,missing=55
					55:leaf=0.281093031
					56:leaf=0.365589648
				28:[yr<1] yes=57,no=58,missing=57
					57:leaf=0.382958293
					58:leaf=0.388631046
			14:[hr<23] yes=29,no=30,missing=29
				29:[weathersit<3] yes=59,no=60,missing=59
					59:leaf=0.375011027
					60:leaf=0.346854985
				30:[weekday<4] yes=61,no=62,missing=61
					61:leaf=0.354101539
					62:leaf=0.369602054
booster[7]:
0:[hr<6] yes=1,no=2,missing=1
	1:[hr<3] yes=3,no=4,missing=3
		3:[workingday<1] yes=7,no=8,missing=7
			7:[temp<0.449999988] yes=15,no=16,missing=15
				15:[holiday<1] yes=31,no=32,missing=31
					31:leaf=0.29998374
					32:leaf=0.216132671
				16:[hr<1] yes=33,no=34,missing=33
					33:leaf=0.353398621
					34:leaf=0.333250463
			8:[hr<1] yes=17,no=18,missing=17
				17:[temp<0.389999986] yes=35,no=36,missing=35
					35:leaf=0.226879761
					36:leaf=0.297773123
				18:[weekday<5] yes=37,no=38,missing=37
					37:leaf=0.169693291
					38:leaf=0.249467894
		4:[hr<5] yes=9,no=10,missing=9
			9:[workingday<1] yes=19,no=20,missing=19
				19:[hr<4] yes=39,no=40,missing=39
					39:leaf=0.248597667
					40:leaf=0.153411373
				20:[atemp<0.280300021] yes=41,no=42,missing=41
					41:leaf=0.0422508568
					42:leaf=0.127087504
			10:[workingday<1] yes=21,no=22,missing=21
				21:[temp<0.449999988] yes=43,no=44,missing=43
					43:leaf=0.120175384
					44:leaf=0.189599708
				22:[temp<0.370000005] yes=45,no=46,missing=45
					45:leaf=0.197585449
					46:leaf=0.261884451
	2:[temp<0.409999996] yes=5,no=6,missing=5
		5:[hr<21] yes=11,no=12,missing=11
			11:[hr<7] yes=23,no=24,missing=23
				23:[workingday<1] yes=47,no=48,missing=47
					47:leaf=0.180249408
					48:leaf=0.32286939
				24:[yr<1] yes=49,no=50,missing=49
					49:leaf=0.355744451
					50:leaf=0.371067822
			12:[atemp<0.265150011] yes=25,no=26,missing=25
				25:[hr<23] yes=51,no=52,missing=51
					51:leaf=0.310503781
					52:leaf=0.268960297
				26:[hr<23] yes=53,no=54,missing=53
					53:leaf=0.340648025
					54:leaf=0.312221736
		6:[hr<22] yes=13,no=14,missing=13
			13:[hr<7] yes=27,no=28,missing=27
				27:[workingday<1] yes=55,no=56,missing=55
					55:leaf=0.252975404
					56:leaf=0.351882339
				28:[yr<1] yes=57,no=58,missing=57
					57:leaf=0.375660509
					58:leaf=0.38357076
			14:[hr<23] yes=29,no=30,missing=29
				29:[weathersit<3] yes=59,no=60,missing=59
					59:leaf=0.364918739
					60:leaf=0.3267878
				30:[weekday<4] yes=61,no=62,missing=61
					61:leaf=0.337365568
					62:leaf=0.357371002
booster[8]:
0:[hr<6] yes=1,no=2,missing=1
	1:[hr<2] yes=3,no=4,missing=3
		3:[workingday<1] yes=7,no=8,missing=7
			7:[temp<0.370000005] yes=15,no=16,missing=15
				15:[atemp<0.234850004] yes=31,no=32,missing=31
					31:leaf=0.23067525
					32:leaf=0.277216673
				16:[temp<0.49000001] yes=33,no=34,missing=33
					33:leaf=0.303642064
					34:leaf=0.329425395
			8:[atemp<0.280300021] yes=17,no=18,missing=17
				17:[hr<1] yes=35,no=36,missing=35
					35:leaf=0.154651895
					36:leaf=0.0748881325
				18:[hr<1] yes=37,no=38,missing=37
					37:leaf=0.261789411
					38:leaf=0.200378016
		4:[workingday<1] yes=9,no=10,missing=9
			9:[hr<4] yes=19,no=20,missing=19
				19:[atemp<0.340900004] yes=39,no=40,missing=39
					39:leaf=0.193857372
					40:leaf=0.274860054
				20:[season<2] yes=41,no=42,missing=41
					41:leaf=0.0535222702
					42:leaf=0.149121493
			10:[hr<5] yes=21,no=22,missing=21
				21:[weekday<5] yes=43,no=44,missing=43
					43:leaf=0.0892270431
					44:leaf=0.15936853
				22:[yr<1] yes=45,no=46,missing=45
					45:leaf=0.18325232
					46:leaf=0.243857145
	2:[temp<0.409999996] yes=5,no=6,missing=5
		5:[hr<21] yes=11,no=12,missing=11
			11:[hr<7] yes=23,no=24,missing=23
				23:[workingday<1] yes=47,no=48,missing=47
					47:leaf=0.150500461
					48:leaf=0.297283977
				24:[yr<1] yes=49,no=50,missing=49
					49:leaf=0.33829698
					50:leaf=0.358742237
			12:[atemp<0.295450002] yes=25,no=26,missing=25
				25:[yr<1] yes=51,no=52,missing=51
					51:leaf=0.25866282
					52:leaf=0.30238241
				26:[weathersit<3] yes=53,no=54,missing=53
					53:leaf=0.318166047
					54:leaf=0.249856636
		6:[hr<22] yes=13,no=14,missing=13
			13:[hr<7] yes=27,no=28,missing=27
				27:[workingday<1] yes=55,no=56,missing=55
					55:leaf=0.220265731
					56:leaf=0.333298683
				28:[yr<1] yes=57,no=58,missing=57
					57:leaf=0.365048289
					58:leaf=0.376119792
			14:[hr<23] yes=29,no=30,missing=29
				29:[weathersit<3] yes=59,no=60,missing=59
					59:leaf=0.350435227
					60:leaf=0.302179635
				30:[weekday<4] yes=61,no=62,missing=61
					61:leaf=0.314929157
					62:leaf=0.34044674
booster[9]:
0:[hr<6] yes=1,no=2,missing=1
	1:[hr<2] yes=3,no=4,missing=3
		3:[workingday<1] yes=7,no=8,missing=7
			7:[temp<0.370000005] yes=15,no=16,missing=15
				15:[yr<1] yes=31,no=32,missing=31
					31:leaf=0.213534117
					32:leaf=0.261375308
				16:[temp<0.50999999] yes=33,no=34,missing=33
					33:leaf=0.276988626
					34:leaf=0.305855125
			8:[temp<0.430000007] yes=17,no=18,missing=17
				17:[weekday<5] yes=35,no=36,missing=35
					35:leaf=0.111734651
					36:leaf=0.200838163
				18:[weekday<4] yes=37,no=38,missing=37
					37:leaf=0.189792514
					38:leaf=0.247813731
		4:[workingday<1] yes=9,no=10,missing=9
			9:[hr<3] yes=19,no=20,missing=19
				19:[temp<0.449999988] yes=39,no=40,missing=39
					39:leaf=0.212568715
					40:leaf=0.273441821
				20:[temp<0.469999999] yes=41,no=42,missing=41
					41:leaf=0.0991935655
					42:leaf=0.180968538
			10:[hr<5] yes=21,no=22,missing=21
				21:[atemp<0.356050014] yes=43,no=44,missing=43
					43:leaf=0.0359031782
					44:leaf=0.10276635
				22:[mnth<5] yes=45,no=46,missing=45
					45:leaf=0.131446108
					46:leaf=0.202824116
	2:[temp<0.409999996] yes=5,no=6,missing=5
		5:[hr<22] yes=11,no=12,missing=11
			11:[hr<7] yes=23,no=24,missing=23
				23:[workingday<1] yes=47,no=48,missing=47
					47:leaf=0.124056004
					48:leaf=0.267641932
				24:[yr<1] yes=49,no=50,missing=49
					49:leaf=0.31426084
					50:leaf=0.341184109
			12:[temp<0.25] yes=25,no=26,missing=25
				25:[weekday<3] yes=51,no=52,missing=51
					51:leaf=0.175368428
					52:leaf=0.233186483
				26:[weathersit<3] yes=53,no=54,missing=53
					53:leaf=0.272816271
					54:leaf=0.186207607
		6:[hr<21] yes=13,no=14,missing=13
			13:[hr<16] yes=27,no=28,missing=27
				27:[hr<7] yes=55,no=56,missing=55
					55:leaf=0.295879424
					56:leaf=0.351558924
				28:[hum<0.805000007] yes=57,no=58,missing=57
					57:leaf=0.368689746
					58:leaf=0.345480293
			14:[hr<23] yes=29,no=30,missing=29
				29:[atemp<0.583350003] yes=59,no=60,missing=59
					59:leaf=0.322135568
					60:leaf=0.343995422
				30:[weekday<5] yes=61,no=62,missing=61
					61:leaf=0.291724414
					62:leaf=0.324899673
booster[10]:
0:[hr<7] yes=1,no=2,missing=1
	1:[hr<6] yes=3,no=4,missing=3
		3:[hr<3] yes=7,no=8,missing=7
			7:[workingday<1] yes=15,no=16,missing=15
				15:[temp<0.449999988] yes=31,no=32,missing=31
					31:leaf=0.201855764
					32:leaf=0.265892535
				16:[hr<1] yes=33,no=34,missing=33
					33:leaf=0.191664621
					34:leaf=0.108670689
			8:[season<2] yes=17,no=18,missing=17
				17:[yr<1] yes=35,no=36,missing=35
					35:leaf=-0.0275912974
					36:leaf=0.108561598
				18:[hr<5] yes=37,no=38,missing=37
					37:leaf=0.105560564
					38:leaf=0.151679605
		4:[workingday<1] yes=9,no=10,missing=9
			9:[season<2] yes=19,no=20,missing=19
				19:[yr<1] yes=39,no=40,missing=39
					39:leaf=-0.123610377
					40:leaf=0.0367238969
				20:[yr<1] yes=41,no=42,missing=41
					41:leaf=0.119063251
					42:leaf=0.202483207
			10:[atemp<0.280300021] yes=21,no=22,missing=21
				21:[yr<1] yes=43,no=44,missing=43
					43:leaf=0.161578953
					44:leaf=0.261042565
				22:[yr<1] yes=45,no=46,missing=45
					45:leaf=0.260331064
					46:leaf=0.297470033
	2:[atemp<0.356050014] yes=5,no=6,missing=5
		5:[hr<20] yes=11,no=12,missing=11
			11:[yr<1] yes=23,no=24,missing=23
				23:[season<3] yes=47,no=48,missing=47
					47:leaf=0.265078515
					48:leaf=0.323498279
				24:[workingday<1] yes=49,no=50,missing=49
					49:leaf=0.299431354
					50:leaf=0.326472759
			12:[yr<1] yes=25,no=26,missing=25
				25:[season<3] yes=51,no=52,missing=51
					51:leaf=0.188994423
					52:leaf=0.267129362
				26:[workingday<1] yes=53,no=54,missing=53
					53:leaf=0.230715543
					54:leaf=0.285164118
		6:[hr<21] yes=13,no=14,missing=13
			13:[yr<1] yes=27,no=28,missing=27
				27:[hr<16] yes=55,no=56,missing=55
					55:leaf=0.320033759
					56:leaf=0.344026715
				28:[hr<16] yes=57,no=58,missing=57
					57:leaf=0.344213158
					58:leaf=0.360581905
			14:[hr<23] yes=29,no=30,missing=29
				29:[atemp<0.583350003] yes=59,no=60,missing=59
					59:leaf=0.29342559
					60:leaf=0.323216289
				30:[temp<0.49000001] yes=61,no=62,missing=61
					61:leaf=0.235446379
					62:leaf=0.280996621
booster[11]:
0:[hr<7] yes=1,no=2,missing=1
	1:[hr<6] yes=3,no=4,missing=3
		3:[hr<2] yes=7,no=8,missing=7
			7:[workingday<1] yes=15,no=16,missing=15
				15:[temp<0.370000005] yes=31,no=32,missing=31
					31:leaf=0.16819641
					32:leaf=0.23861447
				16:[temp<0.430000007] yes=33,no=34,missing=33
					33:leaf=0.0856113508
					34:leaf=0.159917757
			8:[weekday<1] yes=17,no=18,missing=17
				17:[hr<4] yes=35,no=36,missing=35
					35:leaf=0.187413126
					36:leaf=0.0655320063
				18:[season<2] yes=37,no=38,missing=37
					37:leaf=0.038387157
					38:leaf=0.103722788
		4:[workingday<1] yes=9,no=10,missing=9
			9:[season<2] yes=19,no=20,missing=19
				19:[yr<1] yes=39,no=40,missing=39
					39:leaf=-0.101274051
					40:leaf=0.0295287278
				20:[yr<1] yes=41,no=42,missing=41
					41:leaf=0.0970614478
					42:leaf=0.171001658
			10:[atemp<0.280300021] yes=21,no=22,missing=21
				21:[yr<1] yes=43,no=44,missing=43
					43:leaf=0.133764401
					44:leaf=0.228657156
				22:[yr<1] yes=45,no=46,missing=45
					45:leaf=0.227767259
					46:leaf=0.267850548
	2:[temp<0.469999999] yes=5,no=6,missing=5
		5:[hr<20] yes=11,no=12,missing=11
			11:[weathersit<3] yes=23,no=24,missing=23
				23:[temp<0.269999981] yes=47,no=48,missing=47
					47:leaf=0.25305596
					48:leaf=0.299169898
				24:[yr<1] yes=49,no=50,missing=49
					49:leaf=0.183065832
					50:leaf=0.251811922
			12:[atemp<0.295450002] yes=25,no=26,missing=25
				25:[hr<23] yes=51,no=52,missing=51
					51:leaf=0.196227536
					52:leaf=0.128145233
				26:[hr<23] yes=53,no=54,missing=53
					53:leaf=0.250588268
					54:leaf=0.192620635
		6:[hr<21] yes=13,no=14,missing=13
			13:[hr<16] yes=27,no=28,missing=27
				27:[yr<1] yes=55,no=56,missing=55
					55:leaf=0.298333764
					56:leaf=0.325868875
				28:[hr<20] yes=57,no=58,missing=57
					57:leaf=0.341985166
					58:leaf=0.313529938
			14:[hr<23] yes=29,no=30,missing=29
				29:[yr<1] yes=59,no=60,missing=59
					59:leaf=0.273953557
					60:leaf=0.30560267
				30:[weekday<3] yes=61,no=62,missing=61
					61:leaf=0.21906881
					62:leaf=0.26530239
booster[12]:
0:[hr<7] yes=1,no=2,missing=1
	1:[hr<6] yes=3,no=4,missing=3
		3:[hr<1] yes=7,no=8,missing=7
			7:[workingday<1] yes=15,no=16,missing=15
				15:[season<2] yes=31,no=32,missing=31
					31:leaf=0.139805064
					32:leaf=0.220395014
				16:[weekday<5] yes=33,no=34,missing=33
					33:leaf=0.117831863
					34:leaf=0.191057041
			8:[workingday<1] yes=17,no=18,missing=17
				17:[hr<4] yes=35,no=36,missing=35
					35:leaf=0.150885075
					36:leaf=0.042713061
				18:[hr<5] yes=37,no=38,missing=37
					37:leaf=0.0490581803
					38:leaf=0.111327045
		4:[workingday<1] yes=9,no=10,missing=9
			9:[season<2] yes=19,no=20,missing=19
				19:[weekday<1] yes=39,no=40,missing=39
					39:leaf=-0.107243851
					40:leaf=0.0253986958
				20:[weekday<1] yes=41,no=42,missing=41
					41:leaf=0.0615698211
					42:leaf=0.134437367
			10:[season<2] yes=21,no=22,missing=21
				21:[yr<1] yes=43,no=44,missing=43
					43:leaf=0.066080004
					44:leaf=0.197922811
				22:[weathersit<3] yes=45,no=46,missing=45
					45:leaf=0.223030597
					46:leaf=0.135020301
	2:[temp<0.469999999] yes=5,no=6,missing=5
		5:[hr<20] yes=11,no=12,missing=11
			11:[yr<1] yes=23,no=24,missing=23
				23:[season<2] yes=47,no=48,missing=47
					47:leaf=0.194107533
					48:leaf=0.260670871
				24:[weathersit<3] yes=49,no=50,missing=49
					49:leaf=0.281101882
					50:leaf=0.219009683
			12:[yr<1] yes=25,no=26,missing=25
				25:[season<2] yes=51,no=52,missing=51
					51:leaf=0.118274607
					52:leaf=0.199196622
				26:[workingday<1] yes=53,no=54,missing=53
					53:leaf=0.178753361
					54:leaf=0.236837015
		6:[hr<21] yes=13,no=14,missing=13
			13:[hr<16] yes=27,no=28,missing=27
				27:[yr<1] yes=55,no=56,missing=55
					55:leaf=0.268791437
					56:leaf=0.300852597
				28:[yr<1] yes=57,no=58,missing=57
					57:leaf=0.30348742
					58:leaf=0.328635901
			14:[yr<1] yes=29,no=30,missing=29
				29:[hr<23] yes=59,no=60,missing=59
					59:leaf=0.242081031
					60:leaf=0.192264125
				30:[weathersit<3] yes=61,no=62,missing=61
					61:leaf=0.272264242
					62:leaf=0.189957783
booster[13]:
0:[hr<7] yes=1,no=2,missing=1
	1:[yr<1] yes=3,no=4,missing=3
		3:[mnth<5] yes=7,no=8,missing=7
			7:[mnth<4] yes=15,no=16,missing=15
				15:[hr<6] yes=31,no=32,missing=31
					31:leaf=-0.0299372021
					32:leaf=0.0292508341
				16:[hum<0.904999971] yes=33,no=34,missing=33
					33:leaf=0.0618909188
					34:leaf=-0.00732644228
			8:[hr<6] yes=17,no=18,missing=17
				17:[workingday<1] yes=35,no=36,missing=35
					35:leaf=0.12740007
					36:leaf=0.0670910403
				18:[workingday<1] yes=37,no=38,missing=37
					37:leaf=0.0507048555
					38:leaf=0.172792882
		4:[hr<6] yes=9,no=10,missing=9
			9:[hr<2] yes=19,no=20,missing=19
				19:[workingday<1] yes=39,no=40,missing=39
					39:leaf=0.187876523
					40:leaf=0.127813801
				20:[mnth<6] yes=41,no=42,missing=41
					41:leaf=0.0774542615
					42:leaf=0.12782532
			10:[workingday<1] yes=21,no=22,missing=21
				21:[mnth<3] yes=43,no=44,missing=43
					43:leaf=0.00438851072
					44:leaf=0.121065177
				22:[mnth<6] yes=45,no=46,missing=45
					45:leaf=0.182013139
					46:leaf=0.228447914
	2:[temp<0.449999988] yes=5,no=6,missing=5
		5:[yr<1] yes=11,no=12,missing=11
			11:[season<3] yes=23,no=24,missing=23
				23:[hr<21] yes=47,no=48,missing=47
					47:leaf=0.16595982
					48:leaf=0.094023481
				24:[weathersit<3] yes=49,no=50,missing=49
					49:leaf=0.237490416
					50:leaf=0.12931864
			12:[hr<21] yes=25,no=26,missing=25
				25:[atemp<0.295450002] yes=51,no=52,missing=51
					51:leaf=0.215597034
					52:leaf=0.254591405
				26:[hr<23] yes=53,no=54,missing=53
					53:leaf=0.192553967
					54:leaf=0.131780446
		6:[yr<1] yes=13,no=14,missing=13
			13:[hr<22] yes=27,no=28,missing=27
				27:[hum<0.834999979] yes=55,no=56,missing=55
					55:leaf=0.2555812
					56:leaf=0.195191428
				28:[weathersit<3] yes=57,no=58,missing=57
					57:leaf=0.182540193
					58:leaf=0.0741288215
			14:[hr<21] yes=29,no=30,missing=29
				29:[hr<17] yes=59,no=60,missing=59
					59:leaf=0.273744851
					60:leaf=0.306696177
				30:[atemp<0.598500013] yes=61,no=62,missing=61
					61:leaf=0.211344764
					62:leaf=0.249882579
booster[14]:
0:[hr<7] yes=1,no=2,missing=1
	1:[season<2] yes=3,no=4,missing=3
		3:[yr<1] yes=7,no=8,missing=7
			7:[mnth<2] yes=15,no=16,missing=15
				15:[hum<0.495000005] yes=31,no=32,missing=31
					31:leaf=-0.0881092474
					32:leaf=-0.0332064889
				16:[weathersit<3] yes=33,no=34,missing=33
					33:leaf=0.0085638715
					34:leaf=-0.0729229525
			8:[hr<6] yes=17,no=18,missing=17
				17:[weekday<1] yes=35,no=36,missing=35
					35:leaf=0.124776118
					36:leaf=0.05262658
				18:[workingday<1] yes=37,no=38,missing=37
					37:leaf=0.0210795421
					38:leaf=0.135561451
		4:[hr<6] yes=9,no=10,missing=9
			9:[hr<3] yes=19,no=20,missing=19
				19:[workingday<1] yes=39,no=40,missing=39
					39:leaf=0.14398253
					40:leaf=0.0806849971
				20:[yr<1] yes=41,no=42,missing=41
					41:leaf=0.0309850704
					42:leaf=0.0768764392
			10:[workingday<1] yes=21,no=22,missing=21
				21:[hum<0.834999979] yes=43,no=44,missing=43
					43:leaf=0.0903064683
					44:leaf=0.0113458848
				22:[yr<1] yes=45,no=46,missing=45
					45:leaf=0.138079733
					46:leaf=0.182471007
	2:[atemp<0.583350003] yes=5,no=6,missing=5
		5:[weathersit<3] yes=11,no=12,missing=11
			11:[atemp<0.310599983] yes=23,no=24,missing=23
				23:[workingday<1] yes=47,no=48,missing=47
					47:leaf=0.116378032
					48:leaf=0.173443303
				24:[hr<20] yes=49,no=50,missing=49
					49:leaf=0.220317766
					50:leaf=0.164832756
			12:[hr<9] yes=25,no=26,missing=25
				25:[workingday<1] yes=51,no=52,missing=51
					51:leaf=-0.154760271
					52:leaf=0.2041343
				26:[hum<0.88499999] yes=53,no=54,missing=53
					53:leaf=0.121787421
					54:leaf=0.0510181449
		6:[yr<1] yes=13,no=14,missing=13
			13:[hr<16] yes=27,no=28,missing=27
				27:[workingday<1] yes=55,no=56,missing=55
					55:leaf=0.239511952
					56:leaf=0.189952835
				28:[hr<20] yes=57,no=58,missing=57
					57:leaf=0.26118812
					58:leaf=0.189701006
			14:[hr<21] yes=29,no=30,missing=29
				29:[hr<17] yes=59,no=60,missing=59
					59:leaf=0.247578219
					60:leaf=0.28577885
				30:[hr<23] yes=61,no=62,missing=61
					61:leaf=0.224926397
					62:leaf=0.181563899
booster[15]:
0:[hr<7] yes=1,no=2,missing=1
	1:[yr<1] yes=3,no=4,missing=3
		3:[mnth<5] yes=7,no=8,missing=7
			7:[hr<6] yes=15,no=16,missing=15
				15:[temp<0.49000001] yes=31,no=32,missing=31
					31:leaf=-0.0218364764
					32:leaf=0.0505969934
				16:[weathersit<3] yes=33,no=34,missing=33
					33:leaf=0.0455257818
					34:leaf=-0.0600741394
			8:[hr<6] yes=17,no=18,missing=17
				17:[hr<1] yes=35,no=36,missing=35
					35:leaf=0.102608383
					36:leaf=0.0443250351
				18:[workingday<1] yes=37,no=38,missing=37
					37:leaf=0.0279765669
					38:leaf=0.119779885
		4:[mnth<6] yes=9,no=10,missing=9
			9:[weathersit<3] yes=19,no=20,missing=19
				19:[hr<6] yes=39,no=40,missing=39
					39:leaf=0.0742609501
					40:leaf=0.121635437
				20:[hr<6] yes=41,no=42,missing=41
					41:leaf=-0.0206612349
					42:leaf=0.057299275
			10:[hr<1] yes=21,no=22,missing=21
				21:[weathersit<2] yes=43,no=44,missing=43
					43:leaf=0.171715364
					44:leaf=0.117572621
				22:[hr<6] yes=45,no=46,missing=45
					45:leaf=0.0957986042
					46:leaf=0.151389092
	2:[atemp<0.598500013] yes=5,no=6,missing=5
		5:[yr<1] yes=11,no=12,missing=11
			11:[season<2] yes=23,no=24,missing=23
				23:[weathersit<3] yes=47,no=48,missing=47
					47:leaf=0.0983636603
					48:leaf=0.000426976068
				24:[hr<21] yes=49,no=50,missing=49
					49:leaf=0.169396237
					50:leaf=0.105692089
			12:[hr<22] yes=25,no=26,missing=25
				25:[mnth<3] yes=51,no=52,missing=51
					51:leaf=0.16687046
					52:leaf=0.207459763
				26:[weekday<4] yes=53,no=54,missing=53
					53:leaf=0.0903903246
					54:leaf=0.149291709
		6:[yr<1] yes=13,no=14,missing=13
			13:[hr<16] yes=27,no=28,missing=27
				27:[workingday<1] yes=55,no=56,missing=55
					55:leaf=0.210267648
					56:leaf=0.158729658
				28:[hr<20] yes=57,no=58,missing=57
					57:leaf=0.229457453
					58:leaf=0.160404339
			14:[hr<20] yes=29,no=30,missing=29
				29:[hr<17] yes=59,no=60,missing=59
					59:leaf=0.21579209
					60:leaf=0.263809353
				30:[weekday<1] yes=61,no=62,missing=61
					61:leaf=0.150452211
					62:leaf=0.199194059
booster[16]:
0:[hr<7] yes=1,no=2,missing=1
	1:[weathersit<3] yes=3,no=4,missing=3
		3:[temp<0.350000024] yes=7,no=8,missing=7
			7:[hr<6] yes=15,no=16,missing=15
				15:[hr<1] yes=31,no=32,missing=31
					31:leaf=0.0596334748
					32:leaf=0.00965907983
				16:[weekday<1] yes=33,no=34,missing=33
					33:leaf=-0.0341096148
					34:leaf=0.0723843724
			8:[yr<1] yes=17,no=18,missing=17
				17:[hr<6] yes=35,no=36,missing=35
					35:leaf=0.0507782511
					36:leaf=0.0867567956
				18:[hr<6] yes=37,no=38,missing=37
					37:leaf=0.0829771683
					38:leaf=0.123277418
		4:[temp<0.550000012] yes=9,no=10,missing=9
			9:[yr<1] yes=19,no=20,missing=19
				19:[windspeed<0.238799989] yes=39,no=40,missing=39
					39:leaf=-0.0374306329
					40:leaf=-0.0914665088
				20:[atemp<0.204549998] yes=41,no=42,missing=41
					41:leaf=-0.0751681775
					42:leaf=-0.000767178833
			10:[season<4] yes=21,no=22,missing=21
				21:[hum<0.914999962] yes=43,no=44,missing=43
					43:leaf=0.0355802029
					44:leaf=-0.104185283
				22:[hr<2] yes=45,no=46,missing=45
					45:leaf=-0.061208047
					46:leaf=0.122630261
	2:[temp<0.49000001] yes=5,no=6,missing=5
		5:[hr<20] yes=11,no=12,missing=11
			11:[atemp<0.280300021] yes=23,no=24,missing=23
				23:[workingday<1] yes=47,no=48,missing=47
					47:leaf=0.0462400727
					48:leaf=0.122971497
				24:[weathersit<3] yes=49,no=50,missing=49
					49:leaf=0.151677355
					50:leaf=0.0748486966
			12:[weekday<1] yes=25,no=26,missing=25
				25:[windspeed<0.291050017] yes=51,no=52,missing=51
					51:leaf=0.023403924
					52:leaf=-0.0682323202
				26:[hr<23] yes=53,no=54,missing=53
					53:leaf=0.0981312618
					54:leaf=0.0387514196
		6:[yr<1] yes=13,no=14,missing=13
			13:[hum<0.834999979] yes=27,no=28,missing=27
				27:[hr<22] yes=55,no=56,missing=55
					55:leaf=0.16275619
					56:leaf=0.10012342
				28:[weathersit<3] yes=57,no=58,missing=57
					57:leaf=0.119410194
					58:leaf=0.0582573675
			14:[hr<20] yes=29,no=30,missing=29
				29:[hr<17] yes=59,no=60,missing=59
					59:leaf=0.177538142
					60:leaf=0.229588017
				30:[weathersit<3] yes=61,no=62,missing=61
					61:leaf=0.157506332
					62:leaf=0.0649175942
booster[17]:
0:[hr<7] yes=1,no=2,missing=1
	1:[atemp<0.537899971] yes=3,no=4,missing=3
		3:[hr<6] yes=7,no=8,missing=7
			7:[workingday<1] yes=15,no=16,missing=15
				15:[hr<3] yes=31,no=32,missing=31
					31:leaf=0.0703764781
					32:leaf=-0.00132398342
				16:[weekday<5] yes=33,no=34,missing=33
					33:leaf=-0.00396547001
					34:leaf=0.0486520641
			8:[weekday<1] yes=17,no=18,missing=17
				17:[season<2] yes=35,no=36,missing=35
					35:leaf=-0.109198824
					36:leaf=0.0164543204
				18:[weathersit<2] yes=37,no=38,missing=37
					37:leaf=0.0802214369
					38:leaf=0.0433370732
		4:[hr<1] yes=9,no=10,missing=9
			9:[workingday<1] yes=19,no=20,missing=19
				19:[windspeed<0.313449979] yes=39,no=40,missing=39
					39:leaf=0.126945868
					40:leaf=-0.081612885
				20:[weekday<4] yes=41,no=42,missing=41
					41:leaf=0.0494918153
					42:leaf=0.117061391
			10:[hr<6] yes=21,no=22,missing=21
				21:[workingday<1] yes=43,no=44,missing=43
					43:leaf=0.0707212761
					44:leaf=0.0275563579
				22:[workingday<1] yes=45,no=46,missing=45
					45:leaf=-0.00548350811
					46:leaf=0.105873384
	2:[atemp<0.598500013] yes=5,no=6,missing=5
		5:[weathersit<3] yes=11,no=12,missing=11
			11:[yr<1] yes=23,no=24,missing=23
				23:[mnth<4] yes=47,no=48,missing=47
					47:leaf=0.0547215641
					48:leaf=0.116287529
				24:[hr<9] yes=49,no=50,missing=49
					49:leaf=0.171406284
					50:leaf=0.127813697
			12:[hr<9] yes=25,no=26,missing=25
				25:[workingday<1] yes=51,no=52,missing=51
					51:leaf=-0.166441068
					52:leaf=0.127811432
				26:[hr<17] yes=53,no=54,missing=53
					53:leaf=0.00196739356
					54:leaf=0.0657286495
		6:[hr<16] yes=13,no=14,missing=13
			13:[workingday<1] yes=27,no=28,missing=27
				27:[hr<9] yes=55,no=56,missing=55
					55:leaf=-0.0817680955
					56:leaf=0.185145721
				28:[hr<9] yes=57,no=58,missing=57
					57:leaf=0.213370755
					58:leaf=0.0845821276
			14:[hr<20] yes=29,no=30,missing=29
				29:[hr<17] yes=59,no=60,missing=59
					59:leaf=0.152251109
					60:leaf=0.19135046
				30:[hr<22] yes=61,no=62,missing=61
					61:leaf=0.135669813
					62:leaf=0.0955876559
booster[18]:
0:[hr<8] yes=1,no=2,missing=1
	1:[workingday<1] yes=3,no=4,missing=3
		3:[hr<7] yes=7,no=8,missing=7
			7:[hr<4] yes=15,no=16,missing=15
				15:[holiday<1] yes=31,no=32,missing=31
					31:leaf=0.06937062
					32:leaf=-0.018653756
				16:[atemp<0.234850004] yes=33,no=34,missing=33
					33:leaf=-0.0606292374
					34:leaf=8.83628236e-05
			8:[season<2] yes=17,no=18,missing=17
				17:[weekday<1] yes=35,no=36,missing=35
					35:leaf=-0.30223617
					36:leaf=-0.245011315
				18:[holiday<1] yes=37,no=38,missing=37
					37:leaf=-0.198654607
					38:leaf=-0.0496620424
		4:[hr<7] yes=9,no=10,missing=9
			9:[hr<5] yes=19,no=20,missing=19
				19:[hr<2] yes=39,no=40,missing=39
					39:leaf=0.0345633924
					40:leaf=-0.0248144567
				20:[yr<1] yes=41,no=42,missing=41
					41:leaf=0.045482114
					42:leaf=0.0791208744
			10:[weathersit<3] yes=21,no=22,missing=21
				21:[season<2] yes=43,no=44,missing=43
					43:leaf=0.0906673372
					44:leaf=0.143952176
				22:[atemp<0.553049982] yes=45,no=46,missing=45
					45:leaf=0.0267403107
					46:leaf=0.131384954
	2:[hr<9] yes=5,no=6,missing=5
		5:[workingday<1] yes=11,no=12,missing=11
			11:[weekday<1] yes=23,no=24,missing=23
				23:[season<2] yes=47,no=48,missing=47
					47:leaf=-0.180666983
					48:leaf=-0.0729335621
				24:[temp<0.409999996] yes=49,no=50,missing=49
					49:leaf=-0.0621144548
					50:leaf=0.0127346963
			12:[weathersit<3] yes=25,no=26,missing=25
				25:[yr<1] yes=51,no=52,missing=51
					51:leaf=0.198153391
					52:leaf=0.224562883
				26:[windspeed<0.238799989] yes=53,no=54,missing=53
					53:leaf=0.175111637
					54:leaf=0.0943136141
		6:[atemp<0.340900004] yes=13,no=14,missing=13
			13:[temp<0.229999989] yes=27,no=28,missing=27
				27:[hr<10] yes=55,no=56,missing=55
					55:leaf=0.0639138445
					56:leaf=0.0118806642
				28:[hum<0.845000029] yes=57,no=58,missing=57
					57:leaf=0.0738767236
					58:leaf=-0.00150294555
			14:[hum<0.704999983] yes=29,no=30,missing=29
				29:[hr<12] yes=59,no=60,missing=59
					59:leaf=0.074505046
					60:leaf=0.127150699
				30:[hr<16] yes=61,no=62,missing=61
					61:leaf=0.048176825
					62:leaf=0.0866345763
booster[19]:
0:[hr<8] yes=1,no=2,missing=1
	1:[workingday<1] yes=3,no=4,missing=3
		3:[hr<7] yes=7,no=8,missing=7
			7:[hr<3] yes=15,no=16,missing=15
				15:[temp<0.49000001] yes=31,no=32,missing=31
					31:leaf=0.0365809314
					32:leaf=0.0759131089
				16:[atemp<0.234850004] yes=33,no=34,missing=33
					33:leaf=-0.045866929
					34:leaf=0.0102725625
			8:[season<2] yes=17,no=18,missing=17
				17:[yr<1] yes=35,no=36,missing=35
					35:leaf=-0.272262812
					36:leaf=-0.208945394
				18:[holiday<1] yes=37,no=38,missing=37
					37:leaf=-0.167325959
					38:leaf=-0.0399513058
		4:[hr<7] yes=9,no=10,missing=9
			9:[hr<5] yes=19,no=20,missing=19
				19:[weekday<5] yes=39,no=40,missing=39
					39:leaf=-0.00762726134
					40:leaf=0.0555067435
				20:[mnth<5] yes=41,no=42,missing=41
					41:leaf=0.0254685115
					42:leaf=0.0603831075
			10:[weathersit<3] yes=21,no=22,missing=21
				21:[temp<0.210000008] yes=43,no=44,missing=43
					43:leaf=0.0444271564
					44:leaf=0.114667825
				22:[yr<1] yes=45,no=46,missing=45
					45:leaf=-0.000927208865
					46:leaf=0.0743721947
	2:[hr<22] yes=5,no=6,missing=5
		5:[hr<17] yes=11,no=12,missing=11
			11:[hr<9] yes=23,no=24,missing=23
				23:[workingday<1] yes=47,no=48,missing=47
					47:leaf=-0.0412417091
					48:leaf=0.174756721
				24:[workingday<1] yes=49,no=50,missing=49
					49:leaf=0.119852997
					50:leaf=0.0363209806
			12:[hr<19] yes=25,no=26,missing=25
				25:[workingday<1] yes=51,no=52,missing=51
					51:leaf=0.0830836147
					52:leaf=0.168133914
				26:[workingday<1] yes=53,no=54,missing=53
					53:leaf=0.0373867676
					54:leaf=0.0903520212
		6:[weekday<2] yes=13,no=14,missing=13
			13:[temp<0.610000014] yes=27,no=28,missing=27
				27:[hr<23] yes=55,no=56,missing=55
					55:leaf=-0.00531891594
					56:leaf=-0.0558149628
				28:[hr<23] yes=57,no=58,missing=57
					57:leaf=0.0317020528
					58:leaf=-0.00101665198
			14:[temp<0.49000001] yes=29,no=30,missing=29
				29:[weathersit<3] yes=59,no=60,missing=59
					59:leaf=0.0210671313
					60:leaf=-0.0551714115
				30:[hr<23] yes=61,no=62,missing=61
					61:leaf=0.0757473409
					62:leaf=0.0403522067
booster[20]:
0:[atemp<0.583350003] yes=1,no=2,missing=1
	1:[yr<1] yes=3,no=4,missing=3
		3:[mnth<5] yes=7,no=8,missing=7
			7:[hr<8] yes=15,no=16,missing=15
				15:[workingday<1] yes=31,no=32,missing=31
					31:leaf=-0.0542713813
					32:leaf=-0.015924897
				16:[hr<9] yes=33,no=34,missing=33
					33:leaf=0.0770907775
					34:leaf=0.0120170647
			8:[hum<0.834999979] yes=17,no=18,missing=17
				17:[season<2] yes=35,no=36,missing=35
					35:leaf=0.0100177275
					36:leaf=0.0656680167
				18:[weathersit<3] yes=37,no=38,missing=37
					37:leaf=0.0401179418
					38:leaf=-0.00885609444
		4:[weathersit<3] yes=9,no=10,missing=9
			9:[hr<7] yes=19,no=20,missing=19
				19:[hr<1] yes=39,no=40,missing=39
					39:leaf=0.0613234416
					40:leaf=0.0321968123
				20:[mnth<3] yes=41,no=42,missing=41
					41:leaf=0.0593874864
					42:leaf=0.0908631906
			10:[hum<0.564999998] yes=21,no=22,missing=21
				21:[weekday<6] yes=43,no=44,missing=43
					43:leaf=0.129777312
					44:leaf=-0.0923471078
				22:[weekday<4] yes=45,no=46,missing=45
					45:leaf=-0.0148546714
					46:leaf=0.0401573889
	2:[yr<1] yes=5,no=6,missing=5
		5:[hr<12] yes=11,no=12,missing=11
			11:[hr<10] yes=23,no=24,missing=23
				23:[workingday<1] yes=47,no=48,missing=47
					47:leaf=0.00370913744
					48:leaf=0.0752510279
				24:[workingday<1] yes=49,no=50,missing=49
					49:leaf=0.0828153715
					50:leaf=-0.0101503739
			12:[hr<21] yes=25,no=26,missing=25
				25:[hr<17] yes=51,no=52,missing=51
					51:leaf=0.0662785396
					52:leaf=0.0999506861
				26:[hr<23] yes=53,no=54,missing=53
					53:leaf=0.048301246
					54:leaf=0.0156461131
		6:[hum<0.555000007] yes=13,no=14,missing=13
			13:[hr<16] yes=27,no=28,missing=27
				27:[workingday<1] yes=55,no=56,missing=55
					55:leaf=0.139487967
					56:leaf=0.0635568947
				28:[hr<19] yes=57,no=58,missing=57
					57:leaf=0.135197744
					58:leaf=0.0921120197
			14:[hr<7] yes=29,no=30,missing=29
				29:[hr<1] yes=59,no=60,missing=59
					59:leaf=0.0875744
					60:leaf=0.0429840349
				30:[hr<22] yes=61,no=62,missing=61
					61:leaf=0.0933956653
					62:leaf=0.0531519949
booster[21]:
0:[atemp<0.613650024] yes=1,no=2,missing=1
	1:[weathersit<3] yes=3,no=4,missing=3
		3:[yr<1] yes=7,no=8,missing=7
			7:[mnth<3] yes=15,no=16,missing=15
				15:[hr<16] yes=31,no=32,missing=31
					31:leaf=-0.018901309
					32:leaf=0.0175808277
				16:[hr<6] yes=33,no=34,missing=33
					33:leaf=0.00605917163
					34:leaf=0.046094697
			8:[atemp<0.174250007] yes=17,no=18,missing=17
				17:[hum<0.86500001] yes=35,no=36,missing=35
					35:leaf=-0.0121515421
					36:leaf=-0.206847981
				18:[hr<6] yes=37,no=38,missing=37
					37:leaf=0.0263296906
					38:leaf=0.0657142475
		4:[hum<0.194999993] yes=9,no=10,missing=9
			9:[hr<17] yes=19,no=20,missing=19
				19:[hr<10] yes=39,no=40,missing=39
					39:leaf=-0.166321203
					40:leaf=-0.247813329
				20:[hr<19] yes=41,no=42,missing=41
					41:leaf=-0.0391284116
					42:leaf=-0.0981740654
			10:[hum<0.625] yes=21,no=22,missing=21
				21:[temp<0.409999996] yes=43,no=44,missing=43
					43:leaf=0.10197939
					44:leaf=0.0338461958
				22:[windspeed<0.268649995] yes=45,no=46,missing=45
					45:leaf=0.0117488299
					46:leaf=-0.046173539
	2:[yr<1] yes=5,no=6,missing=5
		5:[atemp<0.780300021] yes=11,no=12,missing=11
			11:[hr<12] yes=23,no=24,missing=23
				23:[hr<9] yes=47,no=48,missing=47
					47:leaf=0.0539536476
					48:leaf=0.0284224208
				24:[hr<20] yes=49,no=50,missing=49
					49:leaf=0.0741072893
					50:leaf=0.0409867652
			12:[hr<17] yes=25,no=26,missing=25
				25:[workingday<1] yes=51,no=52,missing=51
					51:leaf=0.0450657085
					52:leaf=-0.0180905778
				26:[workingday<1] yes=53,no=54,missing=53
					53:leaf=-0.0110957175
					54:leaf=0.0719673857
		6:[hr<12] yes=13,no=14,missing=13
			13:[temp<0.769999981] yes=27,no=28,missing=27
				27:[hr<7] yes=55,no=56,missing=55
					55:leaf=0.0470595025
					56:leaf=0.0820312351
				28:[atemp<0.780300021] yes=57,no=58,missing=57
					57:leaf=0.0492483042
					58:leaf=0.0212060455
			14:[hr<20] yes=29,no=30,missing=29
				29:[atemp<0.734849989] yes=59,no=60,missing=59
					59:leaf=0.1004766
					60:leaf=0.0735704303
				30:[weekday<1] yes=61,no=62,missing=61
					61:leaf=0.0289783683
					62:leaf=0.0696440488
booster[22]:
0:[hum<0.784999967] yes=1,no=2,missing=1
	1:[season<2] yes=3,no=4,missing=3
		3:[yr<1] yes=7,no=8,missing=7
			7:[hr<20] yes=15,no=16,missing=15
				15:[hr<17] yes=31,no=32,missing=31
					31:leaf=-0.00161946926
					32:leaf=0.0468020812
				16:[workingday<1] yes=33,no=34,missing=33
					33:leaf=-0.0606285334
					34:leaf=-0.0136087313
			8:[atemp<0.159099996] yes=17,no=18,missing=17
				17:[weathersit<2] yes=35,no=36,missing=35
					35:leaf=-0.0104296347
					36:leaf=-0.0682558566
				18:[hr<20] yes=37,no=38,missing=37
					37:leaf=0.047457166
					38:leaf=0.0109732607
		4:[hr<16] yes=9,no=10,missing=9
			9:[workingday<1] yes=19,no=20,missing=19
				19:[hr<10] yes=39,no=40,missing=39
					39:leaf=-0.0040113125
					40:leaf=0.0966673717
				20:[hr<10] yes=41,no=42,missing=41
					41:leaf=0.0691675171
					42:leaf=0.00382083654
			10:[hr<19] yes=21,no=22,missing=21
				21:[hr<17] yes=43,no=44,missing=43
					43:leaf=0.061592292
					44:leaf=0.100784279
				22:[hr<22] yes=45,no=46,missing=45
					45:leaf=0.0499215126
					46:leaf=0.0179593507
	2:[windspeed<0.291050017] yes=5,no=6,missing=5
		5:[hr<10] yes=11,no=12,missing=11
			11:[hr<8] yes=23,no=24,missing=23
				23:[hr<6] yes=47,no=48,missing=47
					47:leaf=-0.000255474442
					48:leaf=0.0275456198
				24:[workingday<1] yes=49,no=50,missing=49
					49:leaf=-0.0425265692
					50:leaf=0.101147428
			12:[hr<16] yes=25,no=26,missing=25
				25:[workingday<1] yes=51,no=52,missing=51
					51:leaf=0.0606260076
					52:leaf=-0.0656755641
				26:[hr<20] yes=53,no=54,missing=53
					53:leaf=0.0520120524
					54:leaf=0.00281576556
		6:[workingday<1] yes=13,no=14,missing=13
			13:[hum<0.855000019] yes=27,no=28,missing=27
				27:[hr<9] yes=55,no=56,missing=55
					55:leaf=-0.100270227
					56:leaf=-0.0133317402
				28:[mnth<4] yes=57,no=58,missing=57
					57:leaf=-0.0688954219
					58:leaf=-0.152497157
			14:[atemp<0.295450002] yes=29,no=30,missing=29
				29:[windspeed<0.402999997] yes=59,no=60,missing=59
					59:leaf=-0.0506470986
					60:leaf=-0.156476304
				30:[hr<17] yes=61,no=62,missing=61
					61:leaf=-0.00634169159
					62:leaf=0.0393876843
booster[23]:
0:[yr<1] yes=1,no=2,missing=1
	1:[mnth<5] yes=3,no=4,missing=3
		3:[hum<0.935000002] yes=7,no=8,missing=7
			7:[mnth<2] yes=15,no=16,missing=15
				15:[workingday<1] yes=31,no=32,missing=31
					31:leaf=-0.0513742641
					32:leaf=-0.0044445931
				16:[weathersit<2] yes=33,no=34,missing=33
					33:leaf=0.0190937612
					34:leaf=-0.0063081719
			8:[workingday<1] yes=17,no=18,missing=17
				17:[temp<0.269999981] yes=35,no=36,missing=35
					35:leaf=-0.0364526771
					36:leaf=-0.140941799
				18:[temp<0.180000007] yes=37,no=38,missing=37
					37:leaf=0.101926699
					38:leaf=-0.0411121212
		4:[hr<7] yes=9,no=10,missing=9
			9:[hr<1] yes=19,no=20,missing=19
				19:[workingday<1] yes=39,no=40,missing=39
					39:leaf=0.0502177179
					40:leaf=0.0121662309
				20:[weathersit<3] yes=41,no=42,missing=41
					41:leaf=0.00189077912
					42:leaf=-0.0395059846
			10:[hr<20] yes=21,no=22,missing=21
				21:[hr<17] yes=43,no=44,missing=43
					43:leaf=0.0304662026
					44:leaf=0.0660042465
				22:[season<2] yes=45,no=46,missing=45
					45:leaf=-0.0666489899
					46:leaf=0.0163237359
	2:[mnth<3] yes=5,no=6,missing=5
		5:[hr<16] yes=11,no=12,missing=11
			11:[hr<10] yes=23,no=24,missing=23
				23:[workingday<1] yes=47,no=48,missing=47
					47:leaf=-0.0371161439
					48:leaf=0.0559844375
				24:[workingday<1] yes=49,no=50,missing=49
					49:leaf=0.0660281703
					50:leaf=-0.054988008
			12:[hr<19] yes=25,no=26,missing=25
				25:[workingday<1] yes=51,no=52,missing=51
					51:leaf=0.0258021187
					52:leaf=0.0886650905
				26:[workingday<1] yes=53,no=54,missing=53
					53:leaf=-0.0240912065
					54:leaf=0.0246320199
		6:[hr<8] yes=13,no=14,missing=13
			13:[workingday<1] yes=27,no=28,missing=27
				27:[hr<7] yes=55,no=56,missing=55
					55:leaf=0.0377466492
					56:leaf=-0.13696675
				28:[hr<6] yes=57,no=58,missing=57
					57:leaf=0.00692419661
					58:leaf=0.0588430241
			14:[hr<9] yes=29,no=30,missing=29
				29:[workingday<1] yes=59,no=60,missing=59
					59:leaf=-0.0209460519
					60:leaf=0.122139208
				30:[hr<12] yes=61,no=62,missing=61
					61:leaf=0.028269887
					62:leaf=0.0556582287
booster[24]:
0:[weathersit<2] yes=1,no=2,missing=1
	1:[hr<8] yes=3,no=4,missing=3
		3:[workingday<1] yes=7,no=8,missing=7
			7:[hr<7] yes=15,no=16,missing=15
				15:[hr<4] yes=31,no=32,missing=31
					31:leaf=0.0337530263
					32:leaf=-0.0157902278
				16:[season<2] yes=33,no=34,missing=33
					33:leaf=-0.223494202
					34:leaf=-0.125937566
			8:[hr<7] yes=17,no=18,missing=17
				17:[hr<5] yes=35,no=36,missing=35
					35:leaf=-0.00659763953
					36:leaf=0.0184794646
				18:[weekday<5] yes=37,no=38,missing=37
					37:leaf=0.059893705
					38:leaf=0.0244907234
		4:[hr<9] yes=9,no=10,missing=9
			9:[workingday<1] yes=19,no=20,missing=19
				19:[season<2] yes=39,no=40,missing=39
					39:leaf=-0.114340626
					40:leaf=-0.030945776
				20:[temp<0.389999986] yes=41,no=42,missing=41
					41:leaf=0.122213818
					42:leaf=0.0981729552
			10:[hr<12] yes=21,no=22,missing=21
				21:[weekday<5] yes=43,no=44,missing=43
					43:leaf=-0.000567265088
					44:leaf=0.0322286561
				22:[hr<19] yes=45,no=46,missing=45
					45:leaf=0.0477377586
					46:leaf=0.0201279316
	2:[weathersit<3] yes=5,no=6,missing=5
		5:[mnth<6] yes=11,no=12,missing=11
			11:[yr<1] yes=23,no=24,missing=23
				23:[weekday<3] yes=47,no=48,missing=47
					47:leaf=-0.0184576642
					48:leaf=0.00647185976
				24:[hr<21] yes=49,no=50,missing=49
					49:leaf=0.022744853
					50:leaf=-0.0102387806
			12:[hr<7] yes=25,no=26,missing=25
				25:[weekday<1] yes=51,no=52,missing=51
					51:leaf=0.0466324501
					52:leaf=-0.000714790775
				26:[hr<9] yes=53,no=54,missing=53
					53:leaf=0.065982841
					54:leaf=0.02472651
		6:[hum<0.174999997] yes=13,no=14,missing=13
			13:[hr<17] yes=27,no=28,missing=27
				27:[hr<10] yes=55,no=56,missing=55
					55:leaf=-0.137672901
					56:leaf=-0.215264603
				28:[hr<22] yes=57,no=58,missing=57
					57:leaf=-0.0777026936
					58:leaf=-0.0250421613
			14:[hum<0.850000024] yes=29,no=30,missing=29
				29:[hr<17] yes=59,no=60,missing=59
					59:leaf=-0.00438247528
					60:leaf=0.0275943018
				30:[windspeed<0.343299985] yes=61,no=62,missing=61
					61:leaf=-0.0112005128
					62:leaf=-0.0707465708
booster[25]:
0:[yr<1] yes=1,no=2,missing=1
	1:[mnth<5] yes=3,no=4,missing=3
		3:[hum<0.935000002] yes=7,no=8,missing=7
			7:[hr<17] yes=15,no=16,missing=15
				15:[workingday<1] yes=31,no=32,missing=31
					31:leaf=0.0131351696
					32:leaf=-0.0191137474
				16:[hr<19] yes=33,no=34,missing=33
					33:leaf=0.0543521121
					34:leaf=-0.015427324
			8:[workingday<1] yes=17,no=18,missing=17
				17:[temp<0.269999981] yes=35,no=36,missing=35
					35:leaf=-0.0278478451
					36:leaf=-0.113019004
				18:[windspeed<0.119399995] yes=37,no=38,missing=37
					37:leaf=0.0134922517
					38:leaf=-0.0427205376
		4:[hum<0.665000021] yes=9,no=10,missing=9
			9:[atemp<0.780300021] yes=19,no=20,missing=19
				19:[hr<12] yes=39,no=40,missing=39
					39:leaf=0.0164578408
					40:leaf=0.0337747335
				20:[hr<17] yes=41,no=42,missing=41
					41:leaf=-0.0198817924
					42:leaf=0.010931707
			10:[workingday<1] yes=21,no=22,missing=21
				21:[hr<10] yes=43,no=44,missing=43
					43:leaf=-0.0283436906
					44:leaf=0.0118625257
				22:[hr<5] yes=45,no=46,missing=45
					45:leaf=-0.0196132679
					46:leaf=0.0224028062
	2:[season<2] yes=5,no=6,missing=5
		5:[hr<23] yes=11,no=12,missing=11
			11:[hr<16] yes=23,no=24,missing=23
				23:[workingday<1] yes=47,no=48,missing=47
					47:leaf=0.0293836631
					48:leaf=-0.00172423164
				24:[hr<19] yes=49,no=50,missing=49
					49:leaf=0.054209359
					50:leaf=0.0108994115
			12:[weekday<5] yes=25,no=26,missing=25
				25:[hum<0.474999994] yes=51,no=52,missing=51
					51:leaf=-0.10658361
					52:leaf=-0.0552739091
				26:[weathersit<2] yes=53,no=54,missing=53
					53:leaf=0.0281652603
					54:leaf=-0.0216030609
		6:[weathersit<3] yes=13,no=14,missing=13
			13:[hr<22] yes=27,no=28,missing=27
				27:[hr<16] yes=55,no=56,missing=55
					55:leaf=0.0324188881
					56:leaf=0.0519716255
				28:[weekday<3] yes=57,no=58,missing=57
					57:leaf=-0.0188142676
					58:leaf=0.0279098805
			14:[weekday<1] yes=29,no=30,missing=29
				29:[temp<0.389999986] yes=59,no=60,missing=59
					59:leaf=-0.131339148
					60:leaf=-0.0287810806
				30:[temp<0.49000001] yes=61,no=62,missing=61
					61:leaf=0.0528147034
					62:leaf=-0.00527385203
booster[26]:
0:[hr<23] yes=1,no=2,missing=1
	1:[hr<16] yes=3,no=4,missing=3
		3:[workingday<1] yes=7,no=8,missing=7
			7:[hr<11] yes=15,no=16,missing=15
				15:[hr<4] yes=29,no=30,missing=29
					29:leaf=0.0226428732
					30:leaf=-0.0317364894
				16:[holiday<1] yes=31,no=32,missing=31
					31:leaf=0.0624488704
					32:leaf=0.0226139035
			8:[hr<10] yes=17,no=18,missing=17
				17:[hr<7] yes=33,no=34,missing=33
					33:leaf=-0.00464817695
					34:leaf=0.0565031245
				18:[weekday<5] yes=35,no=36,missing=35
					35:leaf=-0.035925325
					36:leaf=0.00881988835
		4:[workingday<1] yes=9,no=10,missing=9
			9:[hr<17] yes=19,no=20,missing=19
				19:[temp<0.889999986] yes=37,no=38,missing=37
					37:leaf=0.0456792377
					38:leaf=-0.0188856684
				20:[temp<0.50999999] yes=39,no=40,missing=39
					39:leaf=-0.0289970282
					40:leaf=0.00389509392
			10:[hr<19] yes=21,no=22,missing=21
				21:[hr<17] yes=41,no=42,missing=41
					41:leaf=0.00910146255
					42:leaf=0.0711293295
				22:[hr<20] yes=43,no=44,missing=43
					43:leaf=0.0346770324
					44:leaf=0.0150215058
	2:[weekday<5] yes=5,no=6,missing=5
		5:[atemp<0.568199992] yes=11,no=12,missing=11
			11:[weekday<4] yes=23,no=24,missing=23
				23:[windspeed<0.238799989] yes=45,no=46,missing=45
					45:leaf=-0.0563506372
					46:leaf=-0.0848271623
				24:[weathersit<3] yes=47,no=48,missing=47
					47:leaf=-0.0257758331
					48:leaf=-0.13264364
			12:[yr<1] yes=25,no=26,missing=25
				25:[windspeed<0.149250001] yes=49,no=50,missing=49
					49:leaf=-0.0412086658
					50:leaf=-0.0156449173
				26:[mnth<7] yes=51,no=52,missing=51
					51:leaf=-0.0230022296
					52:leaf=0.0021095241
		6:[atemp<0.825749993] yes=13,no=14,missing=13
			13:[temp<0.389999986] yes=27,no=28,missing=27
				27:[weekday<6] yes=53,no=54,missing=53
					53:leaf=-0.020617364
					54:leaf=0.0109773939
				28:[temp<0.769999981] yes=55,no=56,missing=55
					55:leaf=0.0298416894
					56:leaf=-0.0244462695
			14:leaf=-0.175200507
booster[27]:
0:[hum<0.834999979] yes=1,no=2,missing=1
	1:[season<2] yes=3,no=4,missing=3
		3:[yr<1] yes=7,no=8,missing=7
			7:[workingday<1] yes=15,no=16,missing=15
				15:[hr<10] yes=31,no=32,missing=31
					31:leaf=-0.0806536525
					32:leaf=-0.00657083979
				16:[hr<10] yes=33,no=34,missing=33
					33:leaf=0.0256959442
					34:leaf=-0.00910465326
			8:[atemp<0.159099996] yes=17,no=18,missing=17
				17:[hum<0.534999967] yes=35,no=36,missing=35
					35:leaf=-0.042056676
					36:leaf=0.0018479632
				18:[hr<17] yes=37,no=38,missing=37
					37:leaf=0.00790719129
					38:leaf=0.0237314012
		4:[yr<1] yes=9,no=10,missing=9
			9:[temp<0.850000024] yes=19,no=20,missing=19
				19:[hr<21] yes=39,no=40,missing=39
					39:leaf=0.0175577141
					40:leaf=-0.000107867447
				20:[atemp<0.810599983] yes=41,no=42,missing=41
					41:leaf=-0.00329867075
					42:leaf=-0.0290191174
			10:[atemp<0.825749993] yes=21,no=22,missing=21
				21:[weekday<3] yes=43,no=44,missing=43
					43:leaf=0.0204483829
					44:leaf=0.0330974422
				22:[hum<0.305000007] yes=45,no=46,missing=45
					45:leaf=-0.0700168461
					46:leaf=-0.0112975715
	2:[windspeed<0.208950013] yes=5,no=6,missing=5
		5:[hr<10] yes=11,no=12,missing=11
			11:[hr<8] yes=23,no=24,missing=23
				23:[mnth<5] yes=47,no=48,missing=47
					47:leaf=-0.0234096926
					48:leaf=0.00540581858
				24:[workingday<1] yes=49,no=50,missing=49
					49:leaf=-0.0436104015
					50:leaf=0.063614428
			12:[hr<16] yes=25,no=26,missing=25
				25:[workingday<1] yes=51,no=52,missing=51
					51:leaf=0.0456547476
					52:leaf=-0.0680304393
				26:[hr<21] yes=53,no=54,missing=53
					53:leaf=0.0204613861
					54:leaf=-0.0165205598
		6:[workingday<1] yes=13,no=14,missing=13
			13:[windspeed<0.507449985] yes=27,no=28,missing=27
				27:[mnth<2] yes=55,no=56,missing=55
					55:leaf=-0.150813937
					56:leaf=-0.0420556106
				28:[hum<0.935000002] yes=57,no=58,missing=57
					57:leaf=-0.204409078
					58:leaf=-0.0115198884
			14:[mnth<2] yes=29,no=30,missing=29
				29:[hr<4] yes=59,no=60,missing=59
					59:leaf=0.0090903407
					60:leaf=-0.0670724958
				30:[hum<0.909999967] yes=61,no=62,missing=61
					61:leaf=0.00144545978
					62:leaf=-0.0247230064
booster[28]:
0:[weathersit<2] yes=1,no=2,missing=1
	1:[hr<23] yes=3,no=4,missing=3
		3:[hr<8] yes=7,no=8,missing=7
			7:[hr<1] yes=15,no=16,missing=15
				15:[weekday<4] yes=31,no=32,missing=31
					31:leaf=0.0153380586
					32:leaf=0.0415968858
				16:[workingday<1] yes=33,no=34,missing=33
					33:leaf=-0.0195555799
					34:leaf=0.00483860448
			8:[hr<9] yes=17,no=18,missing=17
				17:[workingday<1] yes=35,no=36,missing=35
					35:leaf=-0.0362524055
					36:leaf=0.069097884
				18:[hr<12] yes=37,no=38,missing=37
					37:leaf=0.000837796077
					38:leaf=0.0194496643
		4:[weekday<5] yes=9,no=10,missing=9
			9:[temp<0.370000005] yes=19,no=20,missing=19
				19:[temp<0.189999998] yes=39,no=40,missing=39
					39:leaf=-0.0938039646
					40:leaf=-0.0575449727
				20:[mnth<5] yes=41,no=42,missing=41
					41:leaf=-0.0469724536
					42:leaf=-0.0191622358
			10:[hum<0.814999998] yes=21,no=22,missing=21
				21:[mnth<11] yes=43,no=44,missing=43
					43:leaf=0.0168028325
					44:leaf=-0.016043039
				22:[temp<0.239999995] yes=45,no=46,missing=45
					45:leaf=-0.0655326694
					46:leaf=0.0518369451
	2:[windspeed<0.238799989] yes=5,no=6,missing=5
		5:[hr<20] yes=11,no=12,missing=11
			11:[hr<17] yes=23,no=24,missing=23
				23:[hr<10] yes=47,no=48,missing=47
					47:leaf=0.0131844971
					48:leaf=-0.0038341477
				24:[workingday<1] yes=49,no=50,missing=49
					49:leaf=-0.00899663847
					50:leaf=0.047976546
			12:[holiday<1] yes=25,no=26,missing=25
				25:[weathersit<3] yes=51,no=52,missing=51
					51:leaf=-0.00811789092
					52:leaf=-0.0315266587
				26:[temp<0.629999995] yes=53,no=54,missing=53
					53:leaf=-0.0297407154
					54:leaf=0.108043008
		6:[hum<0.665000021] yes=13,no=14,missing=13
			13:[weekday<5] yes=27,no=28,missing=27
				27:[hr<17] yes=55,no=56,missing=55
					55:leaf=-0.0158333853
					56:leaf=0.0175178666
				28:[season<2] yes=57,no=58,missing=57
					57:leaf=-0.00158718403
					58:leaf=0.0328437984
			14:[mnth<2] yes=29,no=30,missing=29
				29:[hum<0.754999995] yes=59,no=60,missing=59
					59:leaf=-0.0311395414
					60:leaf=-0.0703713819
				30:[windspeed<0.402999997] yes=61,no=62,missing=61
					61:leaf=-0.0113546485
					62:leaf=-0.0401748233
booster[29]:
0:[mnth<2] yes=1,no=2,missing=1
	1:[yr<1] yes=3,no=4,missing=3
		3:[workingday<1] yes=7,no=8,missing=7
			7:[hr<10] yes=15,no=16,missing=15
				15:[hr<6] yes=31,no=32,missing=31
					31:leaf=-0.0171404593
					32:leaf=-0.179844439
				16:[hr<17] yes=33,no=34,missing=33
					33:leaf=-0.00813989807
					34:leaf=-0.0600942038
			8:[hr<17] yes=17,no=18,missing=17
				17:[hr<10] yes=35,no=36,missing=35
					35:leaf=0.00511542847
					36:leaf=-0.0533337556
				18:[hr<19] yes=37,no=38,missing=37
					37:leaf=0.0465539321
					38:leaf=-0.0122202691
		4:[weathersit<3] yes=9,no=10,missing=9
			9:[hr<17] yes=19,no=20,missing=19
				19:[windspeed<0.432850003] yes=39,no=40,missing=39
					39:leaf=-0.00165788515
					40:leaf=-0.043168392
				20:[workingday<1] yes=41,no=42,missing=41
					41:leaf=-0.025334904
					42:leaf=0.0269108266
			10:[temp<0.210000008] yes=21,no=22,missing=21
				21:[weekday<3] yes=43,no=44,missing=43
					43:leaf=0.0137836309
					44:leaf=-0.0646681562
				22:[hr<2] yes=45,no=46,missing=45
					45:leaf=-0.213383347
					46:leaf=-0.0555322357
	2:[yr<1] yes=5,no=6,missing=5
		5:[hum<0.894999981] yes=11,no=12,missing=11
			11:[hr<17] yes=23,no=24,missing=23
				23:[workingday<1] yes=47,no=48,missing=47
					47:leaf=0.0169842187
					48:leaf=-0.00337128644
				24:[hr<19] yes=49,no=50,missing=49
					49:leaf=0.0352918319
					50:leaf=-0.000824738469
			12:[hr<9] yes=25,no=26,missing=25
				25:[hr<8] yes=51,no=52,missing=51
					51:leaf=-0.0136726452
					52:leaf=0.0385298617
				26:[hr<16] yes=53,no=54,missing=53
					53:leaf=-0.0485341363
					54:leaf=-0.0136031499
		6:[hr<20] yes=13,no=14,missing=13
			13:[hr<16] yes=27,no=28,missing=27
				27:[workingday<1] yes=55,no=56,missing=55
					55:leaf=0.0297791194
					56:leaf=0.00639541587
				28:[workingday<1] yes=57,no=58,missing=57
					57:leaf=0.00403516972
					58:leaf=0.0388517044
			14:[mnth<6] yes=29,no=30,missing=29
				29:[weekday<2] yes=59,no=60,missing=59
					59:leaf=-0.0254468173
					60:leaf=0.00222880836
				30:[holiday<1] yes=61,no=62,missing=61
					61:leaf=0.0131367398
					62:leaf=0.107974268
booster[30]:
0:[weathersit<3] yes=1,no=2,missing=1
	1:[season<2] yes=3,no=4,missing=3
		3:[hr<8] yes=7,no=8,missing=7
			7:[yr<1] yes=15,no=16,missing=15
				15:[hr<1] yes=31,no=32,missing=31
					31:leaf=0.000637528428
					32:leaf=-0.0350578278
				16:[holiday<1] yes=33,no=34,missing=33
					33:leaf=-0.00386635144
					34:leaf=-0.0701016337
			8:[hr<10] yes=17,no=18,missing=17
				17:[workingday<1] yes=35,no=36,missing=35
					35:leaf=-0.0780541375
					36:leaf=0.0623960905
				18:[hr<12] yes=37,no=38,missing=37
					37:leaf=-0.0335236341
					38:leaf=0.00214157952
		4:[atemp<0.810599983] yes=9,no=10,missing=9
			9:[hum<0.454999983] yes=19,no=20,missing=19
				19:[weekday<5] yes=39,no=40,missing=39
					39:leaf=0.0126490295
					40:leaf=0.0309158359
				20:[hr<23] yes=41,no=42,missing=41
					41:leaf=0.00938345678
					42:leaf=-0.0109790303
			10:[temp<0.930000007] yes=21,no=22,missing=21
				21:[mnth<8] yes=43,no=44,missing=43
					43:leaf=-0.0155436918
					44:leaf=0.0246318281
				22:[windspeed<0.179100007] yes=45,no=46,missing=45
					45:leaf=-0.0583368912
					46:leaf=-0.0305078365
	2:[hum<0.174999997] yes=5,no=6,missing=5
		5:[hr<17] yes=11,no=12,missing=11
			11:[hr<13] yes=23,no=24,missing=23
				23:[hr<12] yes=47,no=48,missing=47
					47:leaf=-0.136057734
					48:leaf=-0.0541503541
				24:leaf=-0.200029776
			12:[hr<22] yes=25,no=26,missing=25
				25:leaf=-0.0735852793
				26:leaf=0.0109075373
		6:[windspeed<0.432850003] yes=13,no=14,missing=13
			13:[hum<0.970000029] yes=27,no=28,missing=27
				27:[hr<20] yes=49,no=50,missing=49
					49:leaf=-0.000416278839
					50:leaf=-0.0274977963
				28:[season<3] yes=51,no=52,missing=51
					51:leaf=-0.0112286247
					52:leaf=-0.0634246916
			14:[workingday<1] yes=29,no=30,missing=29
				29:[hr<20] yes=53,no=54,missing=53
					53:leaf=-0.120872751
					54:leaf=-0.00672931364
				30:[windspeed<0.455250025] yes=55,no=56,missing=55
					55:leaf=-0.0917044505
					56:leaf=0.0074319155
booster[31]:
0:[hr<8] yes=1,no=2,missing=1
	1:[workingday<1] yes=3,no=4,missing=3
		3:[hr<7] yes=7,no=8,missing=7
			7:[hr<3] yes=15,no=16,missing=15
				15:[holiday<1] yes=31,no=32,missing=31
					31:leaf=0.0201119985
					32:leaf=-0.0382353105
				16:[windspeed<0.179100007] yes=33,no=34,missing=33
					33:leaf=-0.00413795514
					34:leaf=-0.0237252917
			8:[weekday<1] yes=17,no=18,missing=17
				17:[atemp<0.598500013] yes=35,no=36,missing=35
					35:leaf=-0.190782413
					36:leaf=-0.109381415
				18:[weathersit<2] yes=37,no=38,missing=37
					37:leaf=-0.0880666748
					38:leaf=-0.159930706
		4:[hr<5] yes=9,no=10,missing=9
			9:[weekday<4] yes=19,no=20,missing=19
				19:[hr<1] yes=39,no=40,missing=39
					39:leaf=-0.012681636
					40:leaf=-0.0526383892
				20:[hr<3] yes=41,no=42,missing=41
					41:leaf=0.0158884954
					42:leaf=-0.039703019
			10:[weekday<5] yes=21,no=22,missing=21
				21:[weekday<2] yes=43,no=44,missing=43
					43:leaf=0.000504006806
					44:leaf=0.0207933336
				22:[temp<0.389999986] yes=45,no=46,missing=45
					45:leaf=-0.0241189878
					46:leaf=0.00152031251
	2:[hr<9] yes=5,no=6,missing=5
		5:[workingday<1] yes=11,no=12,missing=11
			11:[weekday<1] yes=23,no=24,missing=23
				23:[atemp<0.598500013] yes=47,no=48,missing=47
					47:leaf=-0.0941183642
					48:leaf=-0.0230691787
				24:[holiday<1] yes=49,no=50,missing=49
					49:leaf=-0.0226905644
					50:leaf=0.0420326889
			12:[atemp<0.507600009] yes=25,no=26,missing=25
				25:[atemp<0.174250007] yes=51,no=52,missing=51
					51:leaf=0.0368759744
					52:leaf=0.0638288707
				26:[weekday<2] yes=53,no=54,missing=53
					53:leaf=0.0195601527
					54:leaf=0.0497746132
		6:[hr<12] yes=13,no=14,missing=13
			13:[workingday<1] yes=27,no=28,missing=27
				27:[hr<10] yes=55,no=56,missing=55
					55:leaf=-0.0302052349
					56:leaf=0.0266950075
				28:[hr<10] yes=57,no=58,missing=57
					57:leaf=0.0217899587
					58:leaf=-0.0408058576
			14:[hr<19] yes=29,no=30,missing=29
				29:[hr<17] yes=59,no=60,missing=59
					59:leaf=0.00433750078
					60:leaf=0.0272003096
				30:[weekday<1] yes=61,no=62,missing=61
					61:leaf=-0.027840266
					62:leaf=0.00306191924
booster[32]:
0:[yr<1] yes=1,no=2,missing=1
	1:[mnth<5] yes=3,no=4,missing=3
		3:[hum<0.0900000036] yes=7,no=8,missing=7
			7:[hr<18] yes=15,no=16,missing=15
				15:[hr<13] yes=31,no=32,missing=31
					31:leaf=-0.106534615
					32:leaf=-0.149760962
				16:[windspeed<0.111949995] yes=33,no=34,missing=33
					33:leaf=0.0085660005
					34:leaf=-0.0674394146
			8:[hum<0.935000002] yes=17,no=18,missing=17
				17:[mnth<2] yes=35,no=36,missing=35
					35:leaf=-0.0187870916
					36:leaf=-0.00379727595
				18:[windspeed<0.268649995] yes=37,no=38,missing=37
					37:leaf=-0.024795888
					38:leaf=-0.0789743587
		4:[temp<0.850000024] yes=9,no=10,missing=9
			9:[hum<0.555000007] yes=19,no=20,missing=19
				19:[weekday<5] yes=39,no=40,missing=39
					39:leaf=0.00734772393
					40:leaf=0.0175288003
				20:[windspeed<0.313449979] yes=41,no=42,missing=41
					41:leaf=0.00347982533
					42:leaf=-0.0160527807
			10:[weekday<4] yes=21,no=22,missing=21
				21:[weathersit<2] yes=43,no=44,missing=43
					43:leaf=-0.01461777
					44:leaf=0.0380412638
				22:[hum<0.36500001] yes=45,no=46,missing=45
					45:leaf=-0.0140921474
					46:leaf=-0.0398952067
	2:[weathersit<2] yes=5,no=6,missing=5
		5:[temp<0.870000005] yes=11,no=12,missing=11
			11:[weekday<6] yes=23,no=24,missing=23
				23:[hr<16] yes=47,no=48,missing=47
					47:leaf=0.00573589606
					48:leaf=0.017188279
				24:[hr<18] yes=49,no=50,missing=49
					49:leaf=0.0342345238
					50:leaf=-0.0045393426
			12:[temp<0.930000007] yes=25,no=26,missing=25
				25:[mnth<7] yes=51,no=52,missing=51
					51:leaf=-0.0227148589
					52:leaf=0.000180516698
				26:[atemp<0.856050014] yes=53,no=54,missing=53
					53:leaf=-0.0605713837
					54:leaf=-0.027988473
		6:[mnth<7] yes=13,no=14,missing=13
			13:[weathersit<3] yes=27,no=28,missing=27
				27:[atemp<0.219700009] yes=55,no=56,missing=55
					55:leaf=-0.0260436423
					56:leaf=0.00195433665
				28:[temp<0.610000014] yes=57,no=58,missing=57
					57:leaf=-0.00718764355
					58:leaf=-0.0534079559
			14:[weekday<2] yes=29,no=30,missing=29
				29:[hum<0.860000014] yes=59,no=60,missing=59
					59:leaf=-0.00263842335
					60:leaf=0.0290761683
				30:[hr<19] yes=61,no=62,missing=61
					61:leaf=0.0258143749
					62:leaf=0.00199767877
booster[33]:
0:[hr<22] yes=1,no=2,missing=1
	1:[hr<17] yes=3,no=4,missing=3
		3:[workingday<1] yes=7,no=8,missing=7
			7:[hr<10] yes=15,no=16,missing=15
				15:[hr<7] yes=31,no=32,missing=31
					31:leaf=0.00366769359
					32:leaf=-0.0469780229
				16:[holiday<1] yes=33,no=34,missing=33
					33:leaf=0.0321345292
					34:leaf=0.000556745043
			8:[hr<10] yes=17,no=18,missing=17
				17:[hr<7] yes=35,no=36,missing=35
					35:leaf=-0.00835636538
					36:leaf=0.0272468124
				18:[weekday<5] yes=37,no=38,missing=37
					37:leaf=-0.0273184385
					38:leaf=0.00509700784
		4:[workingday<1] yes=9,no=10,missing=9
			9:[mnth<11] yes=19,no=20,missing=19
				19:[temp<0.870000005] yes=39,no=40,missing=39
					39:leaf=-0.013028142
					40:leaf=-0.0598476902
				20:[season<3] yes=41,no=42,missing=41
					41:leaf=-0.147228062
					42:leaf=-0.043085888
			10:[hr<19] yes=21,no=22,missing=21
				21:[atemp<0.598500013] yes=43,no=44,missing=43
					43:leaf=0.0461299382
					44:leaf=0.0235780478
				22:[weekday<5] yes=45,no=46,missing=45
					45:leaf=0.0151707334
					46:leaf=-0.0163955186
	2:[weekday<4] yes=5,no=6,missing=5
		5:[atemp<0.553049982] yes=11,no=12,missing=11
			11:[hr<23] yes=23,no=24,missing=23
				23:[windspeed<0.268649995] yes=47,no=48,missing=47
					47:leaf=-0.0167687815
					48:leaf=-0.0398824476
				24:[windspeed<0.208950013] yes=49,no=50,missing=49
					49:leaf=-0.0350323431
					50:leaf=-0.0579334088
			12:[atemp<0.780300021] yes=25,no=26,missing=25
				25:[weekday<2] yes=51,no=52,missing=51
					51:leaf=-0.0192823615
					52:leaf=-0.000661013415
				26:leaf=0.122053005
		6:[season<2] yes=13,no=14,missing=13
			13:[mnth<8] yes=27,no=28,missing=27
				27:[weekday<6] yes=53,no=54,missing=53
					53:leaf=-0.0197271612
					54:leaf=0.00846844353
				28:[windspeed<0.149250001] yes=55,no=56,missing=55
					55:leaf=-0.116006255
					56:leaf=0.0179423057
			14:[weathersit<3] yes=29,no=30,missing=29
				29:[holiday<1] yes=57,no=58,missing=57
					57:leaf=0.0121208038
					58:leaf=-0.0648468286
				30:[windspeed<0.149250001] yes=59,no=60,missing=59
					59:leaf=-0.0935228914
					60:leaf=-0.0129821943
booster[34]:
0:[temp<0.50999999] yes=1,no=2,missing=1
	1:[atemp<0.128800005] yes=3,no=4,missing=3
		3:[workingday<1] yes=7,no=8,missing=7
			7:[hum<0.425000012] yes=15,no=16,missing=15
				15:[hr<21] yes=31,no=32,missing=31
					31:leaf=-0.0419259667
					32:leaf=-0.0045309579
				16:[hum<0.555000007] yes=33,no=34,missing=33
					33:leaf=-0.0840555951
					34:leaf=-0.0320906602
			8:[hr<10] yes=17,no=18,missing=17
				17:[hr<8] yes=35,no=36,missing=35
					35:leaf=-0.0326988846
					36:leaf=0.0256060697
				18:[hr<16] yes=37,no=38,missing=37
					37:leaf=-0.0792469531
					38:leaf=-0.0152403684
		4:[hr<20] yes=9,no=10,missing=9
			9:[hr<17] yes=19,no=20,missing=19
				19:[hr<10] yes=39,no=40,missing=39
					39:leaf=0.0039155134
					40:leaf=-0.00871882588
				20:[workingday<1] yes=41,no=42,missing=41
					41:leaf=-0.0231560711
					42:leaf=0.0283017457
			10:[weekday<1] yes=21,no=22,missing=21
				21:[windspeed<0.238799989] yes=43,no=44,missing=43
					43:leaf=-0.022150591
					44:leaf=-0.0554264672
				22:[holiday<1] yes=45,no=46,missing=45
					45:leaf=-0.00569616584
					46:leaf=-0.0580099113
	2:[temp<0.829999983] yes=5,no=6,missing=5
		5:[hum<0.574999988] yes=11,no=12,missing=11
			11:[season<2] yes=23,no=24,missing=23
				23:[yr<1] yes=47,no=48,missing=47
					47:leaf=-0.0472069532
					48:leaf=-0.00102936092
				24:[weekday<5] yes=49,no=50,missing=49
					49:leaf=0.00987926219
					50:leaf=0.0191191509
			12:[weekday<2] yes=25,no=26,missing=25
				25:[season<4] yes=51,no=52,missing=51
					51:leaf=-0.00493552256
					52:leaf=0.0196673796
				26:[hum<0.894999981] yes=53,no=54,missing=53
					53:leaf=0.00719485013
					54:leaf=-0.00822341628
		6:[temp<0.930000007] yes=13,no=14,missing=13
			13:[holiday<1] yes=27,no=28,missing=27
				27:[mnth<8] yes=55,no=56,missing=55
					55:leaf=-0.00933878869
					56:leaf=0.00489023561
				28:[hr<20] yes=57,no=58,missing=57
					57:leaf=0.00941728894
					58:leaf=0.0941831768
			14:[windspeed<0.179100007] yes=29,no=30,missing=29
				29:[windspeed<0.0447999984] yes=59,no=60,missing=59
					59:leaf=-0.0266083609
					60:leaf=-0.0539277196
				30:[atemp<0.992399991] yes=61,no=62,missing=61
					61:leaf=-0.020929154
					62:leaf=-0.0863537863
booster[35]:
0:[hr<8] yes=1,no=2,missing=1
	1:[hr<1] yes=3,no=4,missing=3
		3:[hum<0.909999967] yes=7,no=8,missing=7
			7:[weekday<4] yes=15,no=16,missing=15
				15:[weekday<1] yes=31,no=32,missing=31
					31:leaf=0.0255059246
					32:leaf=-0.00702737272
				16:[hum<0.88499999] yes=33,no=34,missing=33
					33:leaf=0.0235994961
					34:leaf=-0.0752321482
			8:[weathersit<2] yes=17,no=18,missing=17
				17:[mnth<10] yes=35,no=36,missing=35
					35:leaf=0.0261925217
					36:leaf=-0.034788806
				18:[temp<0.280000001] yes=37,no=38,missing=37
					37:leaf=-0.171802208
					38:leaf=-0.0520985834
		4:[workingday<1] yes=9,no=10,missing=9
			9:[hr<7] yes=19,no=20,missing=19
				19:[weekday<1] yes=39,no=40,missing=39
					39:leaf=0.00919028744
					40:leaf=-0.011514728
				20:[holiday<1] yes=41,no=42,missing=41
					41:leaf=-0.113442592
					42:leaf=-0.0237815883
			10:[hr<5] yes=21,no=22,missing=21
				21:[weekday<5] yes=43,no=44,missing=43
					43:leaf=-0.0371251367
					44:leaf=0.0036478918
				22:[weekday<5] yes=45,no=46,missing=45
					45:leaf=0.00999922026
					46:leaf=-0.00978673156
	2:[hr<9] yes=5,no=6,missing=5
		5:[workingday<1] yes=11,no=12,missing=11
			11:[weekday<1] yes=23,no=24,missing=23
				23:[temp<0.449999988] yes=47,no=48,missing=47
					47:leaf=-0.0800814182
					48:leaf=-0.0278293192
				24:[holiday<1] yes=49,no=50,missing=49
					49:leaf=-0.0123331249
					50:leaf=0.0421936847
			12:[temp<0.649999976] yes=25,no=26,missing=25
				25:[hum<0.745000005] yes=51,no=52,missing=51
					51:leaf=0.0465652943
					52:leaf=0.0350092016
				26:[weathersit<2] yes=53,no=54,missing=53
					53:leaf=0.0174170677
					54:leaf=0.0333885811
		6:[hr<11] yes=13,no=14,missing=13
			13:[hr<10] yes=27,no=28,missing=27
				27:[weekday<1] yes=55,no=56,missing=55
					55:leaf=-0.032545682
					56:leaf=0.00795070082
				28:[workingday<1] yes=57,no=58,missing=57
					57:leaf=0.00549406884
					58:leaf=-0.0412900224
			14:[hum<0.784999967] yes=29,no=30,missing=29
				29:[weekday<6] yes=59,no=60,missing=59
					59:leaf=0.00326968241
					60:leaf=0.0153914839
				30:[windspeed<0.507449985] yes=61,no=62,missing=61
					61:leaf=-0.00760079548
					62:leaf=-0.117188312
booster[36]:
0:[mnth<2] yes=1,no=2,missing=1
	1:[hum<0.855000019] yes=3,no=4,missing=3
		3:[temp<0.109999999] yes=7,no=8,missing=7
			7:[windspeed<0.179100007] yes=15,no=16,missing=15
				15:[hr<13] yes=31,no=32,missing=31
					31:leaf=-0.031007994
					32:leaf=-0.00440894021
				16:[hum<0.444999993] yes=33,no=34,missing=33
					33:leaf=-0.0422731005
					34:leaf=-0.0998577252
			8:[yr<1] yes=17,no=18,missing=17
				17:[temp<0.350000024] yes=35,no=36,missing=35
					35:leaf=-0.00790712889
					36:leaf=-0.0705897138
				18:[weathersit<3] yes=37,no=38,missing=37
					37:leaf=-0.000754133798
					38:leaf=-0.0384071171
		4:[workingday<1] yes=9,no=10,missing=9
			9:[hr<15] yes=19,no=20,missing=19
				19:[hr<6] yes=39,no=40,missing=39
					39:leaf=-0.0500133596
					40:leaf=-0.164325401
				20:[yr<1] yes=41,no=42,missing=41
					41:leaf=-0.0927001014
					42:leaf=0.0155475764
			10:[windspeed<0.179100007] yes=21,no=22,missing=21
				21:[windspeed<0.119399995] yes=43,no=44,missing=43
					43:leaf=-0.0251134541
					44:leaf=0.00906990189
				22:[temp<0.210000008] yes=45,no=46,missing=45
					45:leaf=-0.0800680444
					46:leaf=-0.0292484444
	2:[yr<1] yes=5,no=6,missing=5
		5:[windspeed<0.432850003] yes=11,no=12,missing=11
			11:[hum<0.894999981] yes=23,no=24,missing=23
				23:[hum<0.0399999991] yes=47,no=48,missing=47
					47:leaf=-0.0887830034
					48:leaf=0.00173201284
				24:[weathersit<2] yes=49,no=50,missing=49
					49:leaf=0.00682151783
					50:leaf=-0.0153768351
			12:[hr<10] yes=25,no=26,missing=25
				25:[weekday<6] yes=51,no=52,missing=51
					51:leaf=0.0158695355
					52:leaf=-0.0792291239
				26:[hum<0.735000014] yes=53,no=54,missing=53
					53:leaf=-0.0174718834
					54:leaf=-0.0589957349
		6:[hr<19] yes=13,no=14,missing=13
			13:[hr<6] yes=27,no=28,missing=27
				27:[hr<3] yes=55,no=56,missing=55
					55:leaf=0.00600346178
					56:leaf=-0.0213295892
				28:[temp<0.810000002] yes=57,no=58,missing=57
					57:leaf=0.011402417
					58:leaf=-0.00252301875
			14:[weathersit<2] yes=29,no=30,missing=29
				29:[workingday<1] yes=59,no=60,missing=59
					59:leaf=-0.00856913812
					60:leaf=0.0078882454
				30:[windspeed<0.432850003] yes=61,no=62,missing=61
					61:leaf=-0.00904960837
					62:leaf=-0.0633537248
booster[37]:
0:[hr<23] yes=1,no=2,missing=1
	1:[hr<16] yes=3,no=4,missing=3
		3:[workingday<1] yes=7,no=8,missing=7
			7:[hr<11] yes=15,no=16,missing=15
				15:[hr<4] yes=31,no=32,missing=31
					31:leaf=0.00709097786
					32:leaf=-0.0182897318
				16:[atemp<0.659099996] yes=33,no=34,missing=33
					33:leaf=0.0324901938
					34:leaf=0.0123693543
			8:[hr<10] yes=17,no=18,missing=17
				17:[hr<7] yes=35,no=36,missing=35
					35:leaf=-0.00612006476
					36:leaf=0.0162925776
				18:[atemp<0.598500013] yes=37,no=38,missing=37
					37:leaf=-0.0301360916
					38:leaf=-0.00796522759
		4:[workingday<1] yes=9,no=10,missing=9
			9:[hr<17] yes=19,no=20,missing=19
				19:[windspeed<0.455250025] yes=39,no=40,missing=39
					39:leaf=0.0159744117
					40:leaf=-0.0432242304
				20:[mnth<11] yes=41,no=42,missing=41
					41:leaf=-0.0101810982
					42:leaf=-0.0454091616
			10:[hr<19] yes=21,no=22,missing=21
				21:[hr<17] yes=43,no=44,missing=43
					43:leaf=-0.00118643616
					44:leaf=0.0238633379
				22:[weekday<5] yes=45,no=46,missing=45
					45:leaf=0.00760915596
					46:leaf=-0.0119576743
	2:[weekday<5] yes=5,no=6,missing=5
		5:[atemp<0.568199992] yes=11,no=12,missing=11
			11:[windspeed<0.238799989] yes=23,no=24,missing=23
				23:[weekday<1] yes=47,no=48,missing=47
					47:leaf=-0.00889556948
					48:leaf=-0.0279248506
				24:[weathersit<3] yes=49,no=50,missing=49
					49:leaf=-0.0413514711
					50:leaf=-0.0794968307
			12:[hum<0.810000002] yes=25,no=26,missing=25
				25:[weekday<3] yes=51,no=52,missing=51
					51:leaf=-0.0244417191
					52:leaf=-0.00918838475
				26:[weekday<1] yes=53,no=54,missing=53
					53:leaf=0.0889351889
					54:leaf=-0.0163423009
		6:[temp<0.769999981] yes=13,no=14,missing=13
			13:[temp<0.389999986] yes=27,no=28,missing=27
				27:[workingday<1] yes=55,no=56,missing=55
					55:leaf=0.0117441248
					56:leaf=-0.0167082977
				28:[windspeed<0.179100007] yes=57,no=58,missing=57
					57:leaf=0.0252371617
					58:leaf=-0.00356827234
			14:[weathersit<2] yes=29,no=30,missing=29
				29:[atemp<0.72724998] yes=59,no=60,missing=59
					59:leaf=-0.0183846597
					60:leaf=-0.0346787833
				30:leaf=-0.13187854
booster[38]:
0:[temp<0.229999989] yes=1,no=2,missing=1
	1:[weekday<1] yes=3,no=4,missing=3
		3:[mnth<2] yes=7,no=8,missing=7
			7:[temp<0.129999995] yes=15,no=16,missing=15
				15:[hr<1] yes=31,no=32,missing=31
					31:leaf=0.0410246402
					32:leaf=-0.0629621893
				16:[yr<1] yes=33,no=34,missing=33
					33:leaf=-0.0162483603
					34:leaf=0.00874183793
			8:[season<3] yes=17,no=18,missing=17
				17:[mnth<8] yes=35,no=36,missing=35
					35:leaf=-0.0545278378
					36:leaf=-0.268405408
				18:[hr<3] yes=37,no=38,missing=37
					37:leaf=0.0275432803
					38:leaf=-0.0414869189
		4:[mnth<12] yes=9,no=10,missing=9
			9:[hr<10] yes=19,no=20,missing=19
				19:[hr<8] yes=39,no=40,missing=39
					39:leaf=-0.0186896529
					40:leaf=0.0179557707
				20:[hr<16] yes=41,no=42,missing=41
					41:leaf=-0.031147331
					42:leaf=-0.00184130576
			10:[hr<8] yes=21,no=22,missing=21
				21:[workingday<1] yes=43,no=44,missing=43
					43:leaf=-0.0954152048
					44:leaf=0.00778031815
				22:[atemp<0.234850004] yes=45,no=46,missing=45
					45:leaf=0.0474632829
					46:leaf=-0.0113084977
	2:[weathersit<2] yes=5,no=6,missing=5
		5:[atemp<0.719699979] yes=11,no=12,missing=11
			11:[holiday<1] yes=23,no=24,missing=23
				23:[hr<22] yes=47,no=48,missing=47
					47:leaf=0.00620155223
					48:leaf=-0.00501676323
				24:[hum<0.764999986] yes=49,no=50,missing=49
					49:leaf=-0.0306468308
					50:leaf=0.0344575942
			12:[holiday<1] yes=25,no=26,missing=25
				25:[temp<0.870000005] yes=51,no=52,missing=51
					51:leaf=-0.00344843674
					52:leaf=-0.0147892898
				26:[hr<21] yes=53,no=54,missing=53
					53:leaf=0.0125715388
					54:leaf=0.0772483051
		6:[windspeed<0.208950013] yes=13,no=14,missing=13
			13:[hr<6] yes=27,no=28,missing=27
				27:[weekday<1] yes=55,no=56,missing=55
					55:leaf=0.0131108779
					56:leaf=-0.0195382014
				28:[hr<9] yes=57,no=58,missing=57
					57:leaf=0.0114708561
					58:leaf=0.00104454893
			14:[hum<0.665000021] yes=29,no=30,missing=29
				29:[hum<0.264999986] yes=59,no=60,missing=59
					59:leaf=-0.066351518
					60:leaf=0.000123941441
				30:[hr<17] yes=61,no=62,missing=61
					61:leaf=-0.0168680269
					62:leaf=-0.00305502163
booster[39]:
0:[windspeed<0.432850003] yes=1,no=2,missing=1
	1:[hr<8] yes=3,no=4,missing=3
		3:[hr<1] yes=7,no=8,missing=7
			7:[hum<0.909999967] yes=15,no=16,missing=15
				15:[weekday<4] yes=31,no=32,missing=31
					31:leaf=0.00441264175
					32:leaf=0.0176016297
				16:[weathersit<3] yes=33,no=34,missing=33
					33:leaf=-0.0106687685
					34:leaf=-0.0776681453
			8:[workingday<1] yes=17,no=18,missing=17
				17:[hr<7] yes=35,no=36,missing=35
					35:leaf=-0.000573226425
					36:leaf=-0.0803481564
				18:[hr<5] yes=37,no=38,missing=37
					37:leaf=-0.0193361044
					38:leaf=0.00304197986
		4:[hr<9] yes=9,no=10,missing=9
			9:[weekday<1] yes=19,no=20,missing=19
				19:[atemp<0.598500013] yes=39,no=40,missing=39
					39:leaf=-0.0509653166
					40:leaf=-0.00203629746
				20:[weekday<6] yes=41,no=42,missing=41
					41:leaf=0.0242018346
					42:leaf=-0.00659432402
			10:[weekday<6] yes=21,no=22,missing=21
				21:[hr<16] yes=43,no=44,missing=43
					43:leaf=-0.0054401923
					44:leaf=0.00417641457
				22:[hr<17] yes=45,no=46,missing=45
					45:leaf=0.0185459275
					46:leaf=-0.00423574913
	2:[hr<19] yes=5,no=6,missing=5
		5:[hum<0.824999988] yes=11,no=12,missing=11
			11:[windspeed<0.597000003] yes=23,no=24,missing=23
				23:[hr<17] yes=47,no=48,missing=47
					47:leaf=-0.00707359379
					48:leaf=0.00869808812
				24:[hr<11] yes=49,no=50,missing=49
					49:leaf=-0.0889171138
					50:leaf=-0.0219835918
			12:[workingday<1] yes=25,no=26,missing=25
				25:[hum<0.909999967] yes=51,no=52,missing=51
					51:leaf=-0.135608479
					52:leaf=-0.0178750586
				26:[season<4] yes=53,no=54,missing=53
					53:leaf=-0.0203397591
					54:leaf=0.0668226406
		6:[mnth<11] yes=13,no=14,missing=13
			13:[hum<0.74000001] yes=27,no=28,missing=27
				27:[temp<0.480000019] yes=55,no=56,missing=55
					55:leaf=-0.0145205902
					56:leaf=-0.0455487296
				28:[season<3] yes=57,no=58,missing=57
					57:leaf=-0.0121013103
					58:leaf=0.0784369707
			14:[temp<0.319999993] yes=29,no=30,missing=29
				29:[hr<22] yes=59,no=60,missing=59
					59:leaf=-0.219918296
					60:leaf=-0.0933784023
				30:leaf=-0.111252151
booster[40]:
0:[season<2] yes=1,no=2,missing=1
	1:[hum<0.204999998] yes=3,no=4,missing=3
		3:[hum<0.0399999991] yes=7,no=8,missing=7
			7:[hr<23] yes=15,no=16,missing=15
				15:[hr<18] yes=31,no=32,missing=31
					31:leaf=-0.0766603351
					32:leaf=-0.0414407887
				16:leaf=0.0294874217
			8:[hr<13] yes=17,no=18,missing=17
				17:[hr<5] yes=33,no=34,missing=33
					33:leaf=-0.0625494644
					34:leaf=-0.0456811786
				18:[windspeed<0.649250031] yes=35,no=36,missing=35
					35:leaf=-0.0305943321
					36:leaf=0.0115130711
		4:[atemp<0.128800005] yes=9,no=10,missing=9
			9:[hum<0.795000017] yes=19,no=20,missing=19
				19:[workingday<1] yes=37,no=38,missing=37
					37:leaf=-0.029689461
					38:leaf=-0.0126120867
				20:[weekday<3] yes=39,no=40,missing=39
					39:leaf=-0.113766551
					40:leaf=0.0295964871
			10:[mnth<8] yes=21,no=22,missing=21
				21:[workingday<1] yes=41,no=42,missing=41
					41:leaf=0.0035010376
					42:leaf=-0.0039022055
				22:[weekday<3] yes=43,no=44,missing=43
					43:leaf=-0.0977347195
					44:leaf=0.006713585
	2:[yr<1] yes=5,no=6,missing=5
		5:[mnth<5] yes=11,no=12,missing=11
			11:[weekday<4] yes=23,no=24,missing=23
				23:[hr<20] yes=45,no=46,missing=45
					45:leaf=-0.0152064478
					46:leaf=-0.0435213111
				24:[hum<0.845000029] yes=47,no=48,missing=47
					47:leaf=0.0101192957
					48:leaf=-0.019578876
			12:[atemp<0.689400017] yes=25,no=26,missing=25
				25:[mnth<11] yes=49,no=50,missing=49
					49:leaf=0.00498056831
					50:leaf=-0.0029266912
				26:[weathersit<3] yes=51,no=52,missing=51
					51:leaf=-0.00574998138
					52:leaf=-0.0349495895
		6:[mnth<4] yes=13,no=14,missing=13
			13:[weekday<5] yes=27,no=28,missing=27
				27:[hum<0.605000019] yes=53,no=54,missing=53
					53:leaf=0.00201434526
					54:leaf=0.0178629942
				28:[hr<12] yes=55,no=56,missing=55
					55:leaf=0.00849120133
					56:leaf=0.0446422696
			14:[weathersit<2] yes=29,no=30,missing=29
				29:[atemp<0.689400017] yes=57,no=58,missing=57
					57:leaf=0.00927691255
					58:leaf=7.72089115e-05
				30:[mnth<7] yes=59,no=60,missing=59
					59:leaf=-0.00745645864
					60:leaf=0.00850524195
booster[41]:
0:[hr<23] yes=1,no=2,missing=1
	1:[hr<8] yes=3,no=4,missing=3
		3:[hr<2] yes=7,no=8,missing=7
			7:[weathersit<2] yes=15,no=16,missing=15
				15:[hum<0.694999993] yes=31,no=32,missing=31
					31:leaf=0.00159037288
					32:leaf=0.0166555773
				16:[temp<0.569999993] yes=33,no=34,missing=33
					33:leaf=-0.0154282665
					34:leaf=0.00453583477
			8:[workingday<1] yes=17,no=18,missing=17
				17:[hr<7] yes=35,no=36,missing=35
					35:leaf=-0.00350365043
					36:leaf=-0.0656620264
				18:[hr<5] yes=37,no=38,missing=37
					37:leaf=-0.0236740243
					38:leaf=0.00223632506
		4:[hr<9] yes=9,no=10,missing=9
			9:[weekday<1] yes=19,no=20,missing=19
				19:[windspeed<0.268649995] yes=39,no=40,missing=39
					39:leaf=-0.0227244869
					40:leaf=-0.0854250193
				20:[weekday<6] yes=41,no=42,missing=41
					41:leaf=0.0196990799
					42:leaf=-0.00692554051
			10:[hr<12] yes=21,no=22,missing=21
				21:[workingday<1] yes=43,no=44,missing=43
					43:leaf=0.00384995039
					44:leaf=-0.0103895618
				22:[windspeed<0.432850003] yes=45,no=46,missing=45
					45:leaf=0.00304880366
					46:leaf=-0.0083427988
	2:[weekday<5] yes=5,no=6,missing=5
		5:[atemp<0.568199992] yes=11,no=12,missing=11
			11:[windspeed<0.238799989] yes=23,no=24,missing=23
				23:[mnth<7] yes=47,no=48,missing=47
					47:leaf=-0.0145890061
					48:leaf=-0.0288364943
				24:[temp<0.129999995] yes=49,no=50,missing=49
					49:leaf=-0.112537757
					50:leaf=-0.0333374888
			12:[hum<0.735000014] yes=25,no=26,missing=25
				25:[weekday<2] yes=51,no=52,missing=51
					51:leaf=-0.0327920243
					52:leaf=-0.0129388394
				26:[weekday<1] yes=53,no=54,missing=53
					53:leaf=0.025731137
					54:leaf=-0.00919841882
		6:[temp<0.769999981] yes=13,no=14,missing=13
			13:[hum<0.795000017] yes=27,no=28,missing=27
				27:[temp<0.550000012] yes=55,no=56,missing=55
					55:leaf=-0.00287083047
					56:leaf=0.0137318913
				28:[weathersit<2] yes=57,no=58,missing=57
					57:leaf=0.03014425
					58:leaf=0.0100687286
			14:[weathersit<2] yes=29,no=30,missing=29
				29:[atemp<0.72724998] yes=59,no=60,missing=59
					59:leaf=-0.01382183
					60:leaf=-0.0266681071
				30:leaf=-0.1107319
booster[42]:
0:[mnth<2] yes=1,no=2,missing=1
	1:[hum<0.715000033] yes=3,no=4,missing=3
		3:[temp<0.150000006] yes=7,no=8,missing=7
			7:[hr<4] yes=15,no=16,missing=15
				15:[workingday<1] yes=31,no=32,missing=31
					31:leaf=-0.0257574804
					32:leaf=-0.0684153661
				16:[holiday<1] yes=33,no=34,missing=33
					33:leaf=-0.0143126501
					34:leaf=0.026037991
			8:[temp<0.430000007] yes=17,no=18,missing=17
				17:[hr<16] yes=35,no=36,missing=35
					35:leaf=-0.003119061
					36:leaf=0.00405856827
				18:[weekday<1] yes=37,no=38,missing=37
					37:leaf=-0.0724867806
					38:leaf=-0.00806350913
		4:[workingday<1] yes=9,no=10,missing=9
			9:[hr<6] yes=19,no=20,missing=19
				19:[hum<0.835000038] yes=39,no=40,missing=39
					39:leaf=0.0551446155
					40:leaf=-0.0372733325
				20:[temp<0.229999989] yes=41,no=42,missing=41
					41:leaf=-0.0289245788
					42:leaf=-0.0944053158
			10:[weathersit<3] yes=21,no=22,missing=21
				21:[windspeed<0.291050017] yes=43,no=44,missing=43
					43:leaf=0.00084595615
					44:leaf=-0.0533865578
				22:[hum<0.904999971] yes=45,no=46,missing=45
					45:leaf=-0.0426546745
					46:leaf=-0.00711545302
	2:[temp<0.870000005] yes=5,no=6,missing=5
		5:[yr<1] yes=11,no=12,missing=11
			11:[windspeed<0.567149997] yes=23,no=24,missing=23
				23:[hum<0.894999981] yes=47,no=48,missing=47
					47:leaf=0.000444117439
					48:leaf=-0.0084335627
				24:[temp<0.449999988] yes=49,no=50,missing=49
					49:leaf=-0.0107461652
					50:leaf=-0.05035742
			12:[hr<19] yes=25,no=26,missing=25
				25:[workingday<1] yes=51,no=52,missing=51
					51:leaf=0.0113681499
					52:leaf=0.00244288053
				26:[mnth<6] yes=53,no=54,missing=53
					53:leaf=-0.00579433283
					54:leaf=0.0054498869
		6:[weekday<5] yes=13,no=14,missing=13
			13:[weekday<2] yes=27,no=28,missing=27
				27:[hr<15] yes=55,no=56,missing=55
					55:leaf=-0.00218825298
					56:leaf=-0.0310406629
				28:[hum<0.245000005] yes=57,no=58,missing=57
					57:leaf=0.0401310809
					58:leaf=-0.00193976366
			14:[hr<17] yes=29,no=30,missing=29
				29:[atemp<0.825749993] yes=59,no=60,missing=59
					59:leaf=-0.00352738868
					60:leaf=-0.0245130714
				30:[windspeed<0.238799989] yes=61,no=62,missing=61
					61:leaf=-0.047520034
					62:leaf=-0.0192672722
booster[43]:
0:[weathersit<3] yes=1,no=2,missing=1
	1:[hr<22] yes=3,no=4,missing=3
		3:[hr<12] yes=7,no=8,missing=7
			7:[hr<10] yes=15,no=16,missing=15
				15:[workingday<1] yes=31,no=32,missing=31
					31:leaf=-0.00921820384
					32:leaf=0.0049400744
				16:[workingday<1] yes=33,no=34,missing=33
					33:leaf=0.010257843
					34:leaf=-0.0183237661
			8:[temp<0.810000002] yes=17,no=18,missing=17
				17:[hr<19] yes=35,no=36,missing=35
					35:leaf=0.00534598529
					36:leaf=-0.000486839097
				18:[weekday<6] yes=37,no=38,missing=37
					37:leaf=-0.00164027791
					38:leaf=-0.0176905561
		4:[weekday<3] yes=9,no=10,missing=9
			9:[hum<0.555000007] yes=19,no=20,missing=19
				19:[mnth<5] yes=39,no=40,missing=39
					39:leaf=-0.0390407033
					40:leaf=-0.0130653968
				20:[mnth<3] yes=41,no=42,missing=41
					41:leaf=0.0111620622
					42:leaf=-0.0154846031
			10:[weekday<6] yes=21,no=22,missing=21
				21:[temp<0.370000005] yes=43,no=44,missing=43
					43:leaf=-0.0113218231
					44:leaf=0.00193467399
				22:[atemp<0.734849989] yes=45,no=46,missing=45
					45:leaf=0.0131102381
					46:leaf=-0.0291680302
	2:[mnth<6] yes=5,no=6,missing=5
		5:[weekday<4] yes=11,no=12,missing=11
			11:[temp<0.550000012] yes=23,no=24,missing=23
				23:[hum<0.465000004] yes=47,no=48,missing=47
					47:leaf=0.049809441
					48:leaf=-0.020947868
				24:[hum<0.715000033] yes=49,no=50,missing=49
					49:leaf=-0.0468146689
					50:leaf=0.0297227446
			12:[mnth<5] yes=25,no=26,missing=25
				25:[hum<0.485000014] yes=51,no=52,missing=51
					51:leaf=-0.0535105653
					52:leaf=0.00193711091
				26:[windspeed<0.208950013] yes=53,no=54,missing=53
					53:leaf=0.0828060731
					54:leaf=0.0189435109
		6:[temp<0.310000002] yes=13,no=14,missing=13
			13:[hum<0.699999988] yes=27,no=28,missing=27
				27:leaf=0.0226367917
				28:[hr<23] yes=55,no=56,missing=55
					55:leaf=-0.110707901
					56:leaf=-0.00270240149
			14:[temp<0.409999996] yes=29,no=30,missing=29
				29:[mnth<11] yes=57,no=58,missing=57
					57:leaf=0.0696759969
					58:leaf=0.0125665609
				30:[windspeed<0.149250001] yes=59,no=60,missing=59
					59:leaf=-0.0399484932
					60:leaf=-0.00799927302
booster[44]:
0:[windspeed<0.179100007] yes=1,no=2,missing=1
	1:[atemp<0.689400017] yes=3,no=4,missing=3
		3:[temp<0.350000024] yes=7,no=8,missing=7
			7:[workingday<1] yes=15,no=16,missing=15
				15:[mnth<4] yes=31,no=32,missing=31
					31:leaf=-0.00396205345
					32:leaf=-0.0267436504
				16:[mnth<12] yes=33,no=34,missing=33
					33:leaf=-0.000700302364
					34:leaf=0.0140526285
			8:[workingday<1] yes=17,no=18,missing=17
				17:[hr<18] yes=35,no=36,missing=35
					35:leaf=0.0163456332
					36:leaf=-0.00400101487
				18:[hr<17] yes=37,no=38,missing=37
					37:leaf=-0.00111139496
					38:leaf=0.00769587932
		4:[holiday<1] yes=9,no=10,missing=9
			9:[weekday<4] yes=19,no=20,missing=19
				19:[weekday<1] yes=39,no=40,missing=39
					39:leaf=-0.0121077457
					40:leaf=0.00200087181
				20:[atemp<0.780300021] yes=41,no=42,missing=41
					41:leaf=-0.00785295945
					42:leaf=-0.0225299951
			10:[temp<0.730000019] yes=21,no=22,missing=21
				21:leaf=-0.0549819879
				22:[hr<22] yes=43,no=44,missing=43
					43:leaf=0.0308160968
					44:leaf=-0.0312503092
	2:[hum<0.784999967] yes=5,no=6,missing=5
		5:[weekday<5] yes=11,no=12,missing=11
			11:[hr<17] yes=23,no=24,missing=23
				23:[weekday<1] yes=45,no=46,missing=45
					45:leaf=0.0107575199
					46:leaf=-0.010932873
				24:[weekday<1] yes=47,no=48,missing=47
					47:leaf=-0.0189219527
					48:leaf=0.00954076182
			12:[hr<18] yes=25,no=26,missing=25
				25:[hr<12] yes=49,no=50,missing=49
					49:leaf=0.00264060777
					50:leaf=0.0124609359
				26:[hr<21] yes=51,no=52,missing=51
					51:leaf=-0.0151543142
					52:leaf=0.000944801432
		6:[workingday<1] yes=13,no=14,missing=13
			13:[windspeed<0.537299991] yes=27,no=28,missing=27
				27:[hr<3] yes=53,no=54,missing=53
					53:leaf=0.00452267285
					54:leaf=-0.0213925727
				28:[mnth<9] yes=55,no=56,missing=55
					55:leaf=-0.119010821
					56:leaf=-0.000956034288
			14:[atemp<0.537899971] yes=29,no=30,missing=29
				29:[temp<0.610000014] yes=57,no=58,missing=57
					57:leaf=-0.00860160124
					58:leaf=-0.109231114
				30:[yr<1] yes=59,no=60,missing=59
					59:leaf=0.0116748288
					60:leaf=-0.00918125734
booster[45]:
0:[season<2] yes=1,no=2,missing=1
	1:[windspeed<0.208950013] yes=3,no=4,missing=3
		3:[temp<0.329999983] yes=7,no=8,missing=7
			7:[mnth<8] yes=15,no=16,missing=15
				15:[hr<17] yes=31,no=32,missing=31
					31:leaf=-0.00450555468
					32:leaf=0.00524399523
				16:[workingday<1] yes=33,no=34,missing=33
					33:leaf=-0.118217252
					34:leaf=0.01125181
			8:[hr<19] yes=17,no=18,missing=17
				17:[workingday<1] yes=35,no=36,missing=35
					35:leaf=0.0228236895
					36:leaf=0.00581466127
				18:[mnth<8] yes=37,no=38,missing=37
					37:leaf=-0.00670178747
					38:leaf=-0.0727432221
		4:[temp<0.409999996] yes=9,no=10,missing=9
			9:[atemp<0.189399987] yes=19,no=20,missing=19
				19:[hum<0.745000005] yes=39,no=40,missing=39
					39:leaf=-0.00894286484
					40:leaf=-0.0327353179
				20:[mnth<8] yes=41,no=42,missing=41
					41:leaf=0.00217971019
					42:leaf=-0.0170908347
			10:[workingday<1] yes=21,no=22,missing=21
				21:[hum<0.534999967] yes=43,no=44,missing=43
					43:leaf=0.0129276877
					44:leaf=-0.0319576003
				22:[hr<16] yes=45,no=46,missing=45
					45:leaf=-0.0339951068
					46:leaf=-0.00769206742
	2:[yr<1] yes=5,no=6,missing=5
		5:[mnth<5] yes=11,no=12,missing=11
			11:[workingday<1] yes=23,no=24,missing=23
				23:[temp<0.430000007] yes=47,no=48,missing=47
					47:leaf=-0.00646198122
					48:leaf=0.0198208615
				24:[hr<10] yes=49,no=50,missing=49
					49:leaf=0.00103381043
					50:leaf=-0.0192696471
			12:[atemp<0.659099996] yes=25,no=26,missing=25
				25:[holiday<1] yes=51,no=52,missing=51
					51:leaf=0.00310109626
					52:leaf=-0.0228684228
				26:[hum<0.779999971] yes=53,no=54,missing=53
					53:leaf=-0.00223752554
					54:leaf=-0.0188109726
		6:[mnth<4] yes=13,no=14,missing=13
			13:[atemp<0.643949986] yes=27,no=28,missing=27
				27:[hr<12] yes=55,no=56,missing=55
					55:leaf=0.00396441249
					56:leaf=0.0171814393
				28:[hr<17] yes=57,no=58,missing=57
					57:leaf=0.06351652
					58:leaf=0.0367299542
			14:[weathersit<3] yes=29,no=30,missing=29
				29:[hum<0.564999998] yes=59,no=60,missing=59
					59:leaf=0.00498939352
					60:leaf=0.000392789399
				30:[mnth<7] yes=61,no=62,missing=61
					61:leaf=-0.022434881
					62:leaf=0.0157140177
booster[46]:
0:[hr<8] yes=1,no=2,missing=1
	1:[hum<0.344999999] yes=3,no=4,missing=3
		3:[holiday<1] yes=7,no=8,missing=7
			7:[mnth<2] yes=15,no=16,missing=15
				15:[weekday<1] yes=31,no=32,missing=31
					31:leaf=0.0434767306
					32:leaf=-0.130720004
				16:[windspeed<0.455250025] yes=33,no=34,missing=33
					33:leaf=-0.0342414193
					34:leaf=-0.0745150149
			8:[yr<1] yes=17,no=18,missing=17
				17:[hr<7] yes=35,no=36,missing=35
					35:leaf=-0.0118720857
					36:leaf=-0.0797468349
				18:leaf=-0.160880446
		4:[hr<2] yes=9,no=10,missing=9
			9:[weekday<1] yes=19,no=20,missing=19
				19:[season<4] yes=37,no=38,missing=37
					37:leaf=0.0115732187
					38:leaf=0.0418534502
				20:[weekday<4] yes=39,no=40,missing=39
					39:leaf=-0.0115666445
					40:leaf=0.00757542765
			10:[workingday<1] yes=21,no=22,missing=21
				21:[hr<7] yes=41,no=42,missing=41
					41:leaf=-0.00162714894
					42:leaf=-0.0516805649
				22:[hr<5] yes=43,no=44,missing=43
					43:leaf=-0.0186274052
					44:leaf=0.00196523522
	2:[hr<9] yes=5,no=6,missing=5
		5:[weekday<1] yes=11,no=12,missing=11
			11:[atemp<0.598500013] yes=23,no=24,missing=23
				23:[windspeed<0.268649995] yes=45,no=46,missing=45
					45:leaf=-0.0260002669
					46:leaf=-0.0880256966
				24:[hum<0.735000014] yes=47,no=48,missing=47
					47:leaf=0.0151429297
					48:leaf=-0.0167927425
			12:[atemp<0.583350003] yes=25,no=26,missing=25
				25:[weekday<6] yes=49,no=50,missing=49
					49:leaf=0.0210603178
					50:leaf=-0.0112452013
				26:[holiday<1] yes=51,no=52,missing=51
					51:leaf=0.00543505093
					52:leaf=-0.0510459356
		6:[workingday<1] yes=13,no=14,missing=13
			13:[hr<17] yes=27,no=28,missing=27
				27:[hr<11] yes=53,no=54,missing=53
					53:leaf=-0.00471297977
					54:leaf=0.0144121442
				28:[hr<21] yes=55,no=56,missing=55
					55:leaf=-0.0142231286
					56:leaf=0.00143786788
			14:[hr<17] yes=29,no=30,missing=29
				29:[weekday<5] yes=57,no=58,missing=57
					57:leaf=-0.0128139248
					58:leaf=0.00807223376
				30:[hr<19] yes=59,no=60,missing=59
					59:leaf=0.0150760924
					60:leaf=-0.00067176437
booster[47]:
0:[mnth<2] yes=1,no=2,missing=1
	1:[hum<0.715000033] yes=3,no=4,missing=3
		3:[hum<0.694999993] yes=7,no=8,missing=7
			7:[temp<0.409999996] yes=15,no=16,missing=15
				15:[atemp<0.189399987] yes=31,no=32,missing=31
					31:leaf=-0.00850078277
					32:leaf=0.000526888471
				16:[weekday<1] yes=33,no=34,missing=33
					33:leaf=-0.0512737744
					34:leaf=-0.00818282459
			8:[weekday<1] yes=17,no=18,missing=17
				17:[hr<14] yes=35,no=36,missing=35
					35:leaf=-0.078321971
					36:leaf=-0.00937707815
				18:[windspeed<0.119399995] yes=37,no=38,missing=37
					37:leaf=0.000276582257
					38:leaf=0.0289590992
		4:[yr<1] yes=9,no=10,missing=9
			9:[atemp<0.280300021] yes=19,no=20,missing=19
				19:[temp<0.210000008] yes=39,no=40,missing=39
					39:leaf=-0.0307224374
					40:leaf=-0.00491669029
				20:[hr<11] yes=41,no=42,missing=41
					41:leaf=-0.11570897
					42:leaf=-0.0346762761
			10:[windspeed<0.0970499963] yes=21,no=22,missing=21
				21:[weathersit<2] yes=43,no=44,missing=43
					43:leaf=0.0426773392
					44:leaf=-0.00102253852
				22:[workingday<1] yes=45,no=46,missing=45
					45:leaf=-0.0283055194
					46:leaf=-0.00179296196
	2:[temp<0.850000024] yes=5,no=6,missing=5
		5:[mnth<11] yes=11,no=12,missing=11
			11:[season<4] yes=23,no=24,missing=23
				23:[yr<1] yes=47,no=48,missing=47
					47:leaf=-0.000830896024
					48:leaf=0.00241467985
				24:[weekday<3] yes=49,no=50,missing=49
					49:leaf=0.0155877201
					50:leaf=0.001380309
			12:[temp<0.469999999] yes=25,no=26,missing=25
				25:[workingday<1] yes=51,no=52,missing=51
					51:leaf=-0.0107045295
					52:leaf=0.00467880117
				26:[holiday<1] yes=53,no=54,missing=53
					53:leaf=-0.0175452866
					54:leaf=-0.134006381
		6:[weekday<5] yes=13,no=14,missing=13
			13:[hr<16] yes=27,no=28,missing=27
				27:[holiday<1] yes=55,no=56,missing=55
					55:leaf=-0.0100751501
					56:leaf=0.0214780625
				28:[workingday<1] yes=57,no=58,missing=57
					57:leaf=-0.0190495905
					58:leaf=0.00675707078
			14:[mnth<8] yes=29,no=30,missing=29
				29:[hr<18] yes=59,no=60,missing=59
					59:leaf=-0.0140418038
					60:leaf=-0.0339557081
